{"learner":{"attributes":{"scikit_learn":"{\"_estimator_type\": \"classifier\"}"},"feature_names":["id","time(ms)","center_z","center_angle(deg)","abdomen_angle(deg)","head_x","head_y","center_x","center_y","abdomen_x","abdomen_y","tail_x","tail_y"],"feature_types":["int","int","float","float","float","float","float","float","float","float","float","float","float"],"gradient_booster":{"model":{"gbtree_model_param":{"num_parallel_tree":"1","num_trees":"800"},"iteration_indptr":[0,8,16,24,32,40,48,56,64,72,80,88,96,104,112,120,128,136,144,152,160,168,176,184,192,200,208,216,224,232,240,248,256,264,272,280,288,296,304,312,320,328,336,344,352,360,368,376,384,392,400,408,416,424,432,440,448,456,464,472,480,488,496,504,512,520,528,536,544,552,560,568,576,584,592,600,608,616,624,632,640,648,656,664,672,680,688,696,704,712,720,728,736,744,752,760,768,776,784,792,800],"tree_info":[0,1,2,3,4,5,6,7,0,1,2,3,4,5,6,7,0,1,2,3,4,5,6,7,0,1,2,3,4,5,6,7,0,1,2,3,4,5,6,7,0,1,2,3,4,5,6,7,0,1,2,3,4,5,6,7,0,1,2,3,4,5,6,7,0,1,2,3,4,5,6,7,0,1,2,3,4,5,6,7,0,1,2,3,4,5,6,7,0,1,2,3,4,5,6,7,0,1,2,3,4,5,6,7,0,1,2,3,4,5,6,7,0,1,2,3,4,5,6,7,0,1,2,3,4,5,6,7,0,1,2,3,4,5,6,7,0,1,2,3,4,5,6,7,0,1,2,3,4,5,6,7,0,1,2,3,4,5,6,7,0,1,2,3,4,5,6,7,0,1,2,3,4,5,6,7,0,1,2,3,4,5,6,7,0,1,2,3,4,5,6,7,0,1,2,3,4,5,6,7,0,1,2,3,4,5,6,7,0,1,2,3,4,5,6,7,0,1,2,3,4,5,6,7,0,1,2,3,4,5,6,7,0,1,2,3,4,5,6,7,0,1,2,3,4,5,6,7,0,1,2,3,4,5,6,7,0,1,2,3,4,5,6,7,0,1,2,3,4,5,6,7,0,1,2,3,4,5,6,7,0,1,2,3,4,5,6,7,0,1,2,3,4,5,6,7,0,1,2,3,4,5,6,7,0,1,2,3,4,5,6,7,0,1,2,3,4,5,6,7,0,1,2,3,4,5,6,7,0,1,2,3,4,5,6,7,0,1,2,3,4,5,6,7,0,1,2,3,4,5,6,7,0,1,2,3,4,5,6,7,0,1,2,3,4,5,6,7,0,1,2,3,4,5,6,7,0,1,2,3,4,5,6,7,0,1,2,3,4,5,6,7,0,1,2,3,4,5,6,7,0,1,2,3,4,5,6,7,0,1,2,3,4,5,6,7,0,1,2,3,4,5,6,7,0,1,2,3,4,5,6,7,0,1,2,3,4,5,6,7,0,1,2,3,4,5,6,7,0,1,2,3,4,5,6,7,0,1,2,3,4,5,6,7,0,1,2,3,4,5,6,7,0,1,2,3,4,5,6,7,0,1,2,3,4,5,6,7,0,1,2,3,4,5,6,7,0,1,2,3,4,5,6,7,0,1,2,3,4,5,6,7,0,1,2,3,4,5,6,7,0,1,2,3,4,5,6,7,0,1,2,3,4,5,6,7,0,1,2,3,4,5,6,7,0,1,2,3,4,5,6,7,0,1,2,3,4,5,6,7,0,1,2,3,4,5,6,7,0,1,2,3,4,5,6,7,0,1,2,3,4,5,6,7,0,1,2,3,4,5,6,7,0,1,2,3,4,5,6,7,0,1,2,3,4,5,6,7,0,1,2,3,4,5,6,7,0,1,2,3,4,5,6,7,0,1,2,3,4,5,6,7,0,1,2,3,4,5,6,7,0,1,2,3,4,5,6,7,0,1,2,3,4,5,6,7,0,1,2,3,4,5,6,7,0,1,2,3,4,5,6,7,0,1,2,3,4,5,6,7,0,1,2,3,4,5,6,7,0,1,2,3,4,5,6,7,0,1,2,3,4,5,6,7,0,1,2,3,4,5,6,7,0,1,2,3,4,5,6,7,0,1,2,3,4,5,6,7,0,1,2,3,4,5,6,7,0,1,2,3,4,5,6,7,0,1,2,3,4,5,6,7,0,1,2,3,4,5,6,7,0,1,2,3,4,5,6,7,0,1,2,3,4,5,6,7,0,1,2,3,4,5,6,7,0,1,2,3,4,5,6,7,0,1,2,3,4,5,6,7],"trees":[{"base_weights":[-4.3921027E-1,1.1244094E0,-5.646444E-1,2.3529412E-1,-1.7052934E-1,1.9701493E-1,-8.955224E-2],"categories":[],"categories_nodes":[],"categories_segments":[],"categories_sizes":[],"default_left":[0,0,0,0,0,0,0],"id":0,"left_children":[1,-1,3,5,-1,-1,-1],"loss_changes":[2.864262E2,0E0,1.7283783E0,9.130817E-1,0E0,0E0,0E0],"parents":[2147483647,0,0,2,2,3,3],"right_children":[2,-1,4,6,-1,-1,-1],"split_conditions":[9.6E1,1.1244094E0,1.11E2,2.9476E1,-1.7052934E-1,1.9701493E-1,-8.955224E-2],"split_indices":[0,0,0,3,0,0,0],"split_type":[0,0,0,0,0,0,0],"sum_hessian":[5.403125E2,1.4875E1,5.254375E2,2.1875E0,5.2325E2,1.09375E0,1.09375E0],"tree_param":{"num_deleted":"0","num_feature":"13","num_nodes":"7","size_leaf_vector":"1"}},{"base_weights":[-5.6483084E-1,-1.70547E-1,-2.3140496E-1,-1.4492755E-1,1.9701493E-1],"categories":[],"categories_nodes":[],"categories_segments":[],"categories_sizes":[],"default_left":[0,0,1,0,0],"id":1,"left_children":[1,-1,3,-1,-1],"loss_changes":[5.2885437E-1,0E0,2.007688E0,0E0,0E0],"parents":[2147483647,0,0,2,2],"right_children":[2,-1,4,-1,-1],"split_conditions":[3.475E3,-1.70547E-1,3.25E2,-1.4492755E-1,1.9701493E-1],"split_indices":[0,0,8,0,0],"split_type":[0,0,0,0,0],"sum_hessian":[5.403125E2,5.3375E2,6.5625E0,5.46875E0,1.09375E0],"tree_param":{"num_deleted":"0","num_feature":"13","num_nodes":"5","size_leaf_vector":"1"}},{"base_weights":[7.449486E-1,4.6055114E-1,1.1473973E0,1.1124064E0,-5.330801E-1,1.9334169E-1,3.7789516E0,-1.7055352E-1,7.259259E-1,8.714597E-1,-5.12009E-1,3.8932443E0,-1.13684215E-1,-5.01182E-1,3.8353345E0,-5.5707765E-1,6.268657E-1,1.1835052E0,1.4901961E0,4.24581E-1,-1.6913426E-1,1.1660478E0,3.4029853E-1,-1.6984722E-1,5.3731345E-2,5.3731345E-2,6.268657E-1,-1.3333334E-1,6.268657E-1],"categories":[],"categories_nodes":[],"categories_segments":[],"categories_sizes":[],"default_left":[0,0,0,0,0,0,0,0,0,0,0,0,0,0,0,1,0,0,1,0,0,0,0,0,0,0,0,0,0],"id":2,"left_children":[1,3,-1,5,7,9,11,-1,-1,13,15,17,-1,19,21,23,-1,-1,25,27,-1,-1,-1,-1,-1,-1,-1,-1,-1],"loss_changes":[4.7235324E2,3.2229932E2,0E0,7.3510034E2,2.2032299E1,1.0775229E2,3.802246E1,0E0,0E0,4.68764E2,1.4131016E1,3.444458E0,0E0,4.835663E0,6.5875244E-1,8.333397E-1,0E0,0E0,2.1305242E0,9.022301E0,0E0,0E0,0E0,0E0,0E0,0E0,0E0,0E0,0E0],"parents":[2147483647,0,0,1,1,3,3,4,4,5,5,6,6,9,9,10,10,11,11,13,13,14,14,15,15,18,18,19,19],"right_children":[2,4,-1,6,8,10,12,-1,-1,14,16,18,-1,20,22,24,-1,-1,26,28,-1,-1,-1,-1,-1,-1,-1,-1,-1],"split_conditions":[3.231E3,1.942E3,1.1473973E0,4.9133E4,1.07699E5,2.4233E4,6.4733E4,-1.7055352E-1,7.259259E-1,4.72E2,1.464E3,6.44E4,-1.13684215E-1,1.1E2,2.3966E4,3.34E2,6.268657E-1,1.1835052E0,1.251E0,3.54E2,-1.6913426E-1,1.1660478E0,3.4029853E-1,-1.6984722E-1,5.3731345E-2,5.3731345E-2,6.268657E-1,-1.3333334E-1,6.268657E-1],"split_indices":[0,0,0,1,1,1,1,0,0,0,0,1,0,7,1,6,0,0,2,0,0,0,0,0,0,0,0,0,0],"split_type":[0,0,0,0,0,0,0,0,0,0,0,0,0,0,0,0,0,0,0,0,0,0,0,0,0,0,0,0,0],"sum_hessian":[5.403125E2,4.956875E2,4.4625E1,2.9925E2,1.964375E2,2.2334375E2,7.590625E1,1.9490625E2,1.53125E0,1.1375E2,1.0959375E2,7.39375E1,1.96875E0,7.83125E1,3.54375E1,1.085E2,1.09375E0,7.175E1,2.1875E0,4.59375E0,7.371875E1,3.434375E1,1.09375E0,1.0740625E2,1.09375E0,1.09375E0,1.09375E0,3.5E0,1.09375E0],"tree_param":{"num_deleted":"0","num_feature":"13","num_nodes":"29","size_leaf_vector":"1"}},{"base_weights":[-2.69253E-1,1.4966416E0,-1.7105849E-1,-3.3044848E-1,3.2569659E0,-5.3004116E-1,7.636364E-1,3.8019452E0,-1.4300519E-1,-1.6677967E-1,5.3731345E-2,1.1645103E0,3.703704E-1],"categories":[],"categories_nodes":[],"categories_segments":[],"categories_sizes":[],"default_left":[0,0,0,0,0,0,0,0,0,0,0,0,0],"id":3,"left_children":[1,3,-1,5,7,9,-1,11,-1,-1,-1,-1,-1],"loss_changes":[2.8852408E2,2.554632E2,0E0,2.4148125E1,8.396582E1,7.9669666E-1,0E0,2.4448547E0,0E0,0E0,0E0,0E0,0E0],"parents":[2147483647,0,0,1,1,3,3,4,4,5,5,7,7],"right_children":[2,4,-1,6,8,10,-1,12,-1,-1,-1,-1,-1],"split_conditions":[1.6233E4,2.41E2,-1.7105849E-1,9.2E3,4.72E2,2.34E2,7.636364E-1,1.5566E4,-1.4300519E-1,-1.6677967E-1,5.3731345E-2,1.1645103E0,3.703704E-1],"split_indices":[1,0,0,1,0,0,0,1,0,0,0,0,0],"split_type":[0,0,0,0,0,0,0,0,0,0,0,0,0],"sum_hessian":[5.403125E2,7.809375E1,4.6221875E2,3.871875E1,3.9375E1,3.696875E1,1.75E0,3.434375E1,5.03125E0,3.5875E1,1.09375E0,3.28125E1,1.53125E0],"tree_param":{"num_deleted":"0","num_feature":"13","num_nodes":"13","size_leaf_vector":"1"}},{"base_weights":[3.884078E-1,1.5985383E0,-1.7086257E-1,-3.5729846E-1,3.371457E0,-1.6971591E-1,9.98004E-1,1.1863014E0,-1.6145456E-1,9.935484E-1,-3.3429396E-1,-1.5384617E-1,1.9701493E-1],"categories":[],"categories_nodes":[],"categories_segments":[],"categories_sizes":[],"default_left":[0,0,0,0,0,0,0,0,0,0,0,0,0],"id":4,"left_children":[1,3,-1,5,7,-1,9,-1,-1,-1,11,-1,-1],"loss_changes":[6.2842377E2,8.314637E2,0E0,3.2978447E1,2.885515E2,0E0,4.9370697E1,0E0,0E0,0E0,2.2552722E0,0E0,0E0],"parents":[2147483647,0,0,1,1,3,3,4,4,6,6,10,10],"right_children":[2,4,-1,6,8,-1,10,-1,-1,-1,12,-1,-1],"split_conditions":[1.464E3,2.4233E4,-1.7086257E-1,2.2033E4,4.9133E4,-1.6971591E-1,2.75E2,1.1863014E0,-1.6145456E-1,9.935484E-1,2.3966E4,-1.5384617E-1,1.9701493E-1],"split_indices":[0,1,0,1,1,0,0,0,0,0,1,0,0],"split_type":[0,0,0,0,0,0,0,0,0,0,0,0,0],"sum_hessian":[5.403125E2,2.384375E2,3.01875E2,1.1375E2,1.246875E2,9.909375E1,1.465625E1,1.085E2,1.61875E1,4.8125E0,9.84375E0,8.75E0,1.09375E0],"tree_param":{"num_deleted":"0","num_feature":"13","num_nodes":"13","size_leaf_vector":"1"}},{"base_weights":[-3.893315E-1,1.7093276E0,-1.710851E-1,-1.6277602E-1,3.4673495E0,3.6568365E0,-8.955224E-2,1.4901961E0,1.1431953E0,5.3731345E-2,6.268657E-1],"categories":[],"categories_nodes":[],"categories_segments":[],"categories_sizes":[],"default_left":[0,0,0,0,0,0,0,0,0,0,0],"id":5,"left_children":[1,3,-1,-1,5,7,-1,9,-1,-1,-1],"loss_changes":[2.0654196E2,1.7298068E2,0E0,0E0,1.8507385E1,2.0905151E0,0E0,2.1305242E0,0E0,0E0,0E0],"parents":[2147483647,0,0,1,1,4,4,5,5,7,7],"right_children":[2,4,-1,-1,6,8,-1,10,-1,-1,-1],"split_conditions":[9.2E3,3.2E3,-1.710851E-1,-1.6277602E-1,2.41E2,1.29E2,-8.955224E-2,5.41E2,1.1431953E0,5.3731345E-2,6.268657E-1],"split_indices":[1,1,0,0,0,6,0,5,0,0,0],"split_type":[0,0,0,0,0,0,0,0,0,0,0],"sum_hessian":[5.403125E2,4.221875E1,4.9809375E2,1.88125E1,2.340625E1,2.23125E1,1.09375E0,2.1875E0,2.0125E1,1.09375E0,1.09375E0],"tree_param":{"num_deleted":"0","num_feature":"13","num_nodes":"11","size_leaf_vector":"1"}},{"base_weights":[2.92345E-1,-1.7084575E-1,1.3125157E0,3.320042E0,-5.3628063E-1,3.8018868E0,-1.5929204E-1,8.627451E-1,-1.7008798E-1,1.3333334E0,1.1819775E0,-8.955224E-2,4.835821E-1,8.878049E-1,-1.3138688E-1],"categories":[],"categories_nodes":[],"categories_segments":[],"categories_sizes":[],"default_left":[0,0,0,0,0,0,0,0,0,1,0,0,0,0,0],"id":6,"left_children":[1,-1,3,5,7,9,-1,11,-1,13,-1,-1,-1,-1,-1],"loss_changes":[4.7667725E2,0E0,9.229302E2,2.2306604E2,6.0715675E0,3.08667E1,0E0,3.2543168E0,0E0,2.18171E1,0E0,0E0,0E0,0E0,0E0],"parents":[2147483647,0,0,2,2,3,3,4,4,5,5,7,7,9,9],"right_children":[2,-1,4,6,8,10,-1,12,-1,14,-1,-1,-1,-1,-1],"split_conditions":[1.92E3,-1.7084575E-1,7.9799E4,2.607E3,9.0299E4,1.942E3,-1.5929204E-1,7.9E-1,-1.7008798E-1,2.99E2,1.1819775E0,-8.955224E-2,4.835821E-1,8.878049E-1,-1.3138688E-1],"split_indices":[0,0,1,0,1,0,0,2,0,7,0,0,0,0,0],"split_type":[0,0,0,0,0,0,0,0,0,0,0,0,0,0,0],"sum_hessian":[5.403125E2,2.93125E2,2.471875E2,1.18125E2,1.290625E2,1.05E2,1.3125E1,2.1875E0,1.26875E2,6.125E0,9.8875E1,1.09375E0,1.09375E0,2.84375E0,3.28125E0],"tree_param":{"num_deleted":"0","num_feature":"13","num_nodes":"15","size_leaf_vector":"1"}},{"base_weights":[2.3692414E-1,-4.1964826E-1,2.316194E0,-5.6498593E-1,1.1150442E0,3.891607E0,-4.5543265E-1,-1.709967E-1,2.3529412E-1,1.4901961E0,1.1814457E0,1.0642202E0,-1.6767123E-1,-8.955224E-2,1.9701493E-1,6.268657E-1,5.3731345E-2,6.268657E-1,-9.7297296E-2],"categories":[],"categories_nodes":[],"categories_segments":[],"categories_sizes":[],"default_left":[0,0,0,0,0,0,0,0,1,0,0,0,0,0,0,0,0,0,0],"id":7,"left_children":[1,3,5,7,-1,9,11,-1,13,15,-1,17,-1,-1,-1,-1,-1,-1,-1],"loss_changes":[7.3996716E2,2.499379E2,5.6968475E2,1.7321548E0,0E0,3.4121094E0,8.1472645E0,0E0,9.130817E-1,2.1305242E0,0E0,5.5272365E0,0E0,0E0,0E0,0E0,0E0,0E0,0E0],"parents":[2147483647,0,0,1,1,2,2,3,3,5,5,6,6,8,8,9,9,11,11],"right_children":[2,4,6,8,-1,10,12,-1,14,16,-1,18,-1,-1,-1,-1,-1,-1,-1],"split_conditions":[7.9799E4,2.607E3,3.222E3,2.594E3,1.1150442E0,9.0299E4,3.231E3,-1.709967E-1,1.454E0,7.9E-1,1.1814457E0,1.07699E5,-1.6767123E-1,-8.955224E-2,1.9701493E-1,6.268657E-1,5.3731345E-2,6.268657E-1,-9.7297296E-2],"split_indices":[1,0,0,0,0,1,0,0,2,2,0,1,0,0,0,0,0,0,0],"split_type":[0,0,0,0,0,0,0,0,0,0,0,0,0,0,0,0,0,0,0],"sum_hessian":[5.403125E2,4.1125E2,1.290625E2,3.98125E2,1.3125E1,8.203125E1,4.703125E1,3.959375E2,2.1875E0,2.1875E0,7.984375E1,2.40625E0,4.4625E1,1.09375E0,1.09375E0,1.09375E0,1.09375E0,1.09375E0,1.3125E0],"tree_param":{"num_deleted":"0","num_feature":"13","num_nodes":"19","size_leaf_vector":"1"}},{"base_weights":[-4.019154E-1,4.2442477E-1,-5.4253507E-1,1.9692522E-1,-1.641818E-1,2.0909949E-1,-9.736547E-2],"categories":[],"categories_nodes":[],"categories_segments":[],"categories_sizes":[],"default_left":[0,0,0,0,0,0,0],"id":8,"left_children":[1,-1,3,5,-1,-1,-1],"loss_changes":[1.1219694E2,0E0,1.528595E0,1.0912825E0,0E0,0E0,0E0],"parents":[2147483647,0,0,2,2,3,3],"right_children":[2,-1,4,6,-1,-1,-1],"split_conditions":[9.6E1,4.2442477E-1,1.11E2,5.41E2,-1.641818E-1,2.0909949E-1,-9.736547E-2],"split_indices":[0,0,0,5,0,0,0],"split_type":[0,0,0,0,0,0,0],"sum_hessian":[4.3519324E2,3.0615173E1,4.0457803E2,2.3172884E0,4.0226077E2,1.0111016E0,1.3061867E0],"tree_param":{"num_deleted":"0","num_feature":"13","num_nodes":"7","size_leaf_vector":"1"}},{"base_weights":[-5.4274076E-1,-1.6422343E-1,-1.5881619E-1,-1.3532051E-1,1.932447E-1],"categories":[],"categories_nodes":[],"categories_segments":[],"categories_sizes":[],"default_left":[0,0,1,0,0],"id":9,"left_children":[1,-1,3,-1,-1],"loss_changes":[6.610031E-1,0E0,1.7976168E0,0E0,0E0],"parents":[2147483647,0,0,2,2],"right_children":[2,-1,4,-1,-1],"split_conditions":[1.16199E5,-1.6422343E-1,2.16E2,-1.3532051E-1,1.932447E-1],"split_indices":[1,0,5,0,0],"split_type":[0,0,0,0,0],"sum_hessian":[4.1610895E2,4.1068686E2,5.4220915E0,4.296542E0,1.1255494E0],"tree_param":{"num_deleted":"0","num_feature":"13","num_nodes":"5","size_leaf_vector":"1"}},{"base_weights":[4.829059E-1,3.1761113E-1,4.1243288E-1,6.585915E-1,-5.4069173E-1,1.4458571E-1,1.3661021E0,-1.6415296E-1,4.6015933E-2,5.451811E-1,-5.093156E-1,1.3871832E0,-1.0599943E-1,-4.6716428E-1,4.2025748E-1,-1.631707E-1,1.9313896E-1,4.1863924E-1,3.8969137E-2,4.1779634E-1,-1.6285585E-1,-1.21898E-1,4.164556E-1],"categories":[],"categories_nodes":[],"categories_segments":[],"categories_sizes":[],"default_left":[0,0,0,0,1,0,0,0,0,0,1,1,0,0,0,0,0,0,0,0,0,0,0],"id":10,"left_children":[1,3,-1,5,7,9,11,-1,-1,13,15,17,-1,19,-1,-1,-1,-1,-1,21,-1,-1,-1],"loss_changes":[9.108235E1,1.5401451E2,0E0,1.3661536E2,7.5829315E-1,5.7649807E1,6.223999E0,0E0,0E0,1.1872186E2,3.6891422E0,1.4478455E0,0E0,4.458932E0,0E0,0E0,0E0,0E0,0E0,4.997115E0,0E0,0E0,0E0],"parents":[2147483647,0,0,1,1,3,3,4,4,5,5,6,6,9,9,10,10,11,11,13,13,19,19],"right_children":[2,4,-1,6,8,10,12,-1,-1,14,16,18,-1,20,-1,-1,-1,-1,-1,22,-1,-1,-1],"split_conditions":[3.222E3,1.942E3,4.1243288E-1,4.7666E4,1.65E0,2.4233E4,6.4733E4,-1.6415296E-1,4.6015933E-2,4.72E2,3.27E2,5.2E2,-1.0599943E-1,1.1E2,4.2025748E-1,-1.631707E-1,1.9313896E-1,4.1863924E-1,3.8969137E-2,3.54E2,-1.6285585E-1,-1.21898E-1,4.164556E-1],"split_indices":[0,0,0,1,2,1,1,0,0,0,6,7,0,7,0,0,0,0,0,0,0,0,0],"split_type":[0,0,0,0,0,0,0,0,0,0,0,0,0,0,0,0,0,0,0,0,0,0,0],"sum_hessian":[6.197982E2,5.240327E2,9.576548E1,3.7520618E2,1.4882654E2,2.1801953E2,1.5718665E2,1.4765862E2,1.1679349E0,1.3529865E2,8.272089E1,1.554737E2,1.712951E0,6.218365E1,7.311499E1,8.082493E1,1.8959595E0,1.5434721E2,1.1264842E0,4.543265E0,5.764039E1,2.7711134E0,1.7721515E0],"tree_param":{"num_deleted":"0","num_feature":"13","num_nodes":"23","size_leaf_vector":"1"}},{"base_weights":[-2.3126087E-1,8.2171273E-1,-1.6483939E-1,-1.596551E-1,1.2673913E0,1.3602755E0,-1.3224825E-1,-1.1261571E-1,4.2410526E-1],"categories":[],"categories_nodes":[],"categories_segments":[],"categories_sizes":[],"default_left":[0,0,0,0,0,0,0,0,0],"id":11,"left_children":[1,3,-1,-1,5,7,-1,-1,-1],"loss_changes":[1.5542287E2,6.5682365E1,0E0,0E0,1.3507111E1,7.7055206E0,0E0,0E0,0E0],"parents":[2147483647,0,0,1,1,4,4,5,5],"right_children":[2,4,-1,-1,6,8,-1,-1,-1],"split_conditions":[1.6233E4,2.22E2,-1.6483939E-1,-1.596551E-1,4.72E2,4.764E0,-1.3224825E-1,-1.1261571E-1,4.2410526E-1],"split_indices":[1,0,0,0,0,3,0,0,0],"split_type":[0,0,0,0,0,0,0,0,0],"sum_hessian":[4.6151816E2,1.0673549E2,3.5478268E2,2.6385796E1,8.034969E1,7.6399185E1,3.9505072E0,2.1007562E0,7.429843E1],"tree_param":{"num_deleted":"0","num_feature":"13","num_nodes":"9","size_leaf_vector":"1"}},{"base_weights":[2.7011487E-1,8.376531E-1,-1.6462141E-1,-1.6342872E-1,1.2511058E0,1.3422377E0,-1.5304504E-1,6.734994E-1,4.1724887E-1,4.3219268E-1,-2.7899557E-1,-1.4548163E-1,1.9820626E-1],"categories":[],"categories_nodes":[],"categories_segments":[],"categories_sizes":[],"default_left":[0,0,0,0,0,0,0,0,0,0,1,0,0],"id":12,"left_children":[1,3,-1,-1,5,7,-1,9,-1,-1,11,-1,-1],"loss_changes":[2.6430435E2,1.9256792E2,0E0,0E0,4.2213196E1,7.0662537E0,0E0,1.4008974E1,0E0,0E0,2.0901725E0,0E0,0E0],"parents":[2147483647,0,0,1,1,4,4,5,5,7,7,10,10],"right_children":[2,4,-1,-1,6,8,-1,10,-1,-1,12,-1,-1],"split_conditions":[1.464E3,2.2033E4,-1.6462141E-1,-1.6342872E-1,4.9133E4,2.4233E4,-1.5304504E-1,2.75E2,4.1724887E-1,4.3219268E-1,2.12E2,-1.4548163E-1,1.9820626E-1],"split_indices":[0,1,0,0,1,1,0,0,0,0,6,0,0],"split_type":[0,0,0,0,0,0,0,0,0,0,0,0,0],"sum_hessian":[5.667372E2,3.3472195E2,2.320152E2,7.698805E1,2.5773392E2,2.452804E2,1.2453521E1,1.7621935E1,2.2765845E2,9.476797E0,8.145139E0,7.07787E0,1.0672692E0],"tree_param":{"num_deleted":"0","num_feature":"13","num_nodes":"13","size_leaf_vector":"1"}},{"base_weights":[-3.4966168E-1,9.0902746E-1,-1.6489075E-1,-1.5504266E-1,1.3697857E0,1.980043E-2,4.2218E-1],"categories":[],"categories_nodes":[],"categories_segments":[],"categories_sizes":[],"default_left":[0,0,0,0,0,0,0],"id":13,"left_children":[1,3,-1,-1,5,-1,-1],"loss_changes":[1.1222179E2,4.0932316E1,0E0,0E0,2.1817856E0,0E0,0E0],"parents":[2147483647,0,0,1,1,4,4],"right_children":[2,4,-1,-1,6,-1,-1],"split_conditions":[9.2E3,3.2E3,-1.6489075E-1,-1.5504266E-1,1.22E2,1.980043E-2,4.2218E-1],"split_indices":[1,1,0,0,12,0,0],"split_type":[0,0,0,0,0,0,0],"sum_hessian":[4.428609E2,6.0227535E1,3.826334E2,1.4679509E1,4.5548023E1,1.3499686E0,4.4198055E1],"tree_param":{"num_deleted":"0","num_feature":"13","num_nodes":"7","size_leaf_vector":"1"}},{"base_weights":[2.092291E-1,-1.6461714E-1,7.3372865E-1,1.2802813E0,-1.6365364E-1,1.3789649E0,-1.5367024E-1,8.46771E-1,4.1865167E-1,4.3823764E-1,-1.2298048E-1],"categories":[],"categories_nodes":[],"categories_segments":[],"categories_sizes":[],"default_left":[0,0,0,0,0,0,0,1,0,0,0],"id":14,"left_children":[1,-1,3,5,-1,7,-1,9,-1,-1,-1],"loss_changes":[2.199687E2,0E0,2.2922253E2,4.1268677E1,0E0,7.338867E-1,0E0,7.6228323E0,0E0,0E0,0E0],"parents":[2147483647,0,0,2,2,3,3,5,5,7,7],"right_children":[2,-1,4,6,-1,8,-1,10,-1,-1,-1],"split_conditions":[1.92E3,-1.6461714E-1,9.0299E4,2.607E3,-1.6365364E-1,1.942E3,-1.5367024E-1,2.99E2,4.1865167E-1,4.3823764E-1,-1.2298048E-1],"split_indices":[0,0,1,0,0,0,0,7,0,0,0],"split_type":[0,0,0,0,0,0,0,0,0,0,0],"sum_hessian":[5.513037E2,2.2545424E2,3.258495E2,2.2830562E2,9.754386E1,2.166112E2,1.1694422E1,8.102647E0,2.0850856E2,5.3340535E0,2.768593E0],"tree_param":{"num_deleted":"0","num_feature":"13","num_nodes":"11","size_leaf_vector":"1"}},{"base_weights":[1.7555563E-1,-3.8070908E-1,1.0650458E0,-1.6478898E-1,1.3505486E0,1.3850563E0,-1.6077292E-1,4.2922974E-1,-9.259548E-2,4.2116916E-1,-1.12976484E-1],"categories":[],"categories_nodes":[],"categories_segments":[],"categories_sizes":[],"default_left":[0,0,0,0,1,0,0,0,0,0,0],"id":15,"left_children":[1,3,5,-1,7,9,-1,-1,-1,-1,-1],"loss_changes":[2.6860468E2,9.829169E1,1.0772487E2,0E0,4.4275017E0,6.3142395E0,0E0,0E0,0E0,0E0,0E0],"parents":[2147483647,0,0,1,1,2,2,4,4,5,5],"right_children":[2,4,6,-1,8,10,-1,-1,-1,-1,-1],"split_conditions":[7.9799E4,2.594E3,3.231E3,-1.6478898E-1,2.59E2,1.07699E5,-1.6077292E-1,4.2922974E-1,-9.259548E-2,4.2116916E-1,-1.12976484E-1],"split_indices":[1,0,0,0,6,1,0,0,0,0,0],"split_type":[0,0,0,0,0,0,0,0,0,0,0],"sum_hessian":[5.410443E2,3.332255E2,2.0781882E2,3.0427805E2,2.894745E1,1.7331102E2,3.4507793E1,2.7743801E1,1.2036483E0,1.71678E2,1.6330345E0],"tree_param":{"num_deleted":"0","num_feature":"13","num_nodes":"11","size_leaf_vector":"1"}},{"base_weights":[-3.806446E-1,9.5949006E-1,-5.343825E-1,3.097693E-1,-1.0862214E-1,-1.6123402E-1,-3.400173E-1,5.9890874E-2,-1.3739428E-1],"categories":[],"categories_nodes":[],"categories_segments":[],"categories_sizes":[],"default_left":[0,1,0,0,0,0,0,0,0],"id":16,"left_children":[1,3,5,-1,-1,-1,7,-1,-1],"loss_changes":[7.446567E1,3.9757614E0,9.422302E-3,0E0,0E0,0E0,5.8350617E-1,0E0,0E0],"parents":[2147483647,0,0,1,1,2,2,6,6],"right_children":[2,4,6,-1,-1,-1,8,-1,-1],"split_conditions":[1.11E2,5.32E2,1.15266E5,3.097693E-1,-1.0862214E-1,-1.6123402E-1,2.63E2,5.9890874E-2,-1.3739428E-1],"split_indices":[0,5,1,0,0,0,12,0,0],"split_type":[0,0,0,0,0,0,0,0,0],"sum_hessian":[3.579434E2,3.629742E1,3.2164597E2,3.4602783E1,1.6946392E0,3.1491614E2,6.729824E0,1.0830039E0,5.64682E0],"tree_param":{"num_deleted":"0","num_feature":"13","num_nodes":"9","size_leaf_vector":"1"}},{"base_weights":[-5.28779E-1,-1.6037415E-1,-9.188776E-2,-1.2743519E-1,2.0901316E-1],"categories":[],"categories_nodes":[],"categories_segments":[],"categories_sizes":[],"default_left":[0,0,1,0,0],"id":17,"left_children":[1,-1,3,-1,-1],"loss_changes":[7.980423E-1,0E0,1.7628379E0,0E0,0E0],"parents":[2147483647,0,0,2,2],"right_children":[2,-1,4,-1,-1],"split_conditions":[3.475E3,-1.6037415E-1,2.16E2,-1.2743519E-1,2.0901316E-1],"split_indices":[0,0,5,0,0],"split_type":[0,0,0,0,0],"sum_hessian":[3.3323276E2,3.2864505E2,4.587684E0,3.550311E0,1.0373732E0],"tree_param":{"num_deleted":"0","num_feature":"13","num_nodes":"5","size_leaf_vector":"1"}},{"base_weights":[3.936185E-1,-1.5880921E-1,4.773104E-1,6.8476796E-1,1.799328E-1,3.4725222E-1,9.829893E-1,-5.264397E-1,2.9108185E-1,9.1300994E-1,-4.471397E-1,2.989387E-1,-9.852414E-2,-1.6029967E-1,4.4915326E-2,1.5635312E-2,1.0028514E0,-5.1655734E-1,3.0402505E-1,3.161961E-1,-1.3896085E-1,3.227852E-2,3.0391407E-1,-1.596271E-1,5.7018045E-2],"categories":[],"categories_nodes":[],"categories_segments":[],"categories_sizes":[],"default_left":[0,0,0,0,0,0,0,1,0,0,0,0,0,0,0,0,0,1,0,0,0,0,0,0,0],"id":18,"left_children":[1,-1,3,5,7,9,11,13,-1,15,17,-1,-1,-1,-1,19,21,23,-1,-1,-1,-1,-1,-1,-1],"loss_changes":[4.6268265E1,0E0,3.360456E1,3.203749E1,1.2669129E2,6.892271E1,3.3350677E0,7.203789E-1,0E0,7.189026E0,7.020625E0,0E0,0E0,0E0,0E0,5.036842E0,6.3230133E-1,7.7983856E-1,0E0,0E0,0E0,0E0,0E0,0E0,0E0],"parents":[2147483647,0,0,2,2,3,3,4,4,5,5,6,6,7,7,9,9,10,10,15,15,16,16,17,17],"right_children":[2,-1,4,6,8,10,12,14,-1,16,18,-1,-1,-1,-1,20,22,24,-1,-1,-1,-1,-1,-1,-1],"split_conditions":[4.16E2,-1.5880921E-1,1.942E3,4.9133E4,3.222E3,7.24E2,6.4733E4,1.65E0,2.9108185E-1,4.72E2,1.464E3,2.989387E-1,-9.852414E-2,-1.6029967E-1,4.4915326E-2,1.19E2,1.21E2,3.34E2,3.0402505E-1,3.161961E-1,-1.3896085E-1,3.227852E-2,3.0391407E-1,-1.596271E-1,5.7018045E-2],"split_indices":[0,0,0,1,0,0,1,2,0,0,0,0,0,0,0,5,6,6,0,0,0,0,0,0,0],"split_type":[0,0,0,0,0,0,0,0,0,0,0,0,0,0,0,0,0,0,0,0,0,0,0,0,0],"sum_hessian":[5.947008E2,4.8998913E1,5.457019E2,3.2068317E2,2.2501875E2,1.5144633E2,1.6923682E2,1.1899762E2,1.0602114E2,8.836463E1,6.3081696E1,1.6775354E2,1.4832894E0,1.1783196E2,1.1656518E0,8.148452E0,8.021618E1,6.083657E1,2.2451243E0,2.1926332E0,5.9558187E0,1.0333356E0,7.9182846E1,5.9769695E1,1.0668765E0],"tree_param":{"num_deleted":"0","num_feature":"13","num_nodes":"25","size_leaf_vector":"1"}},{"base_weights":[-2.1279809E-1,6.295682E-1,-1.6114055E-1,-1.5491015E-1,9.115746E-1,9.669357E-1,-1.24166176E-1,-1.0400843E-1,9.988031E-1,6.464459E-1,3.0803695E-1,-1.104046E-1,2.6306644E-1],"categories":[],"categories_nodes":[],"categories_segments":[],"categories_sizes":[],"default_left":[0,0,0,0,0,0,0,0,0,0,0,0,0],"id":19,"left_children":[1,3,-1,-1,5,7,-1,-1,9,11,-1,-1,-1],"loss_changes":[1.0776706E2,3.5944206E1,0E0,0E0,6.8908157E0,3.9132004E0,0E0,0E0,1.5911865E-1,2.3892348E0,0E0,0E0,0E0],"parents":[2147483647,0,0,1,1,4,4,5,5,8,8,9,9],"right_children":[2,4,-1,-1,6,8,-1,-1,10,12,-1,-1,-1],"split_conditions":[1.6233E4,2.22E2,-1.6114055E-1,-1.5491015E-1,4.72E2,4.764E0,-1.24166176E-1,-1.0400843E-1,3.627E1,2.13E2,3.0803695E-1,-1.104046E-1,2.6306644E-1],"split_indices":[1,0,0,0,0,3,0,0,3,7,0,0,0],"split_type":[0,0,0,0,0,0,0,0,0,0,0,0,0],"sum_hessian":[3.9220914E2,1.0877034E2,2.834388E2,2.1317095E1,8.745325E1,8.420664E1,3.2466013E0,1.760403E0,8.244624E1,7.839821E0,7.460642E1,1.3407084E0,6.4991126E0],"tree_param":{"num_deleted":"0","num_feature":"13","num_nodes":"13","size_leaf_vector":"1"}},{"base_weights":[2.279755E-1,6.480081E-1,-1.6087072E-1,-1.5938696E-1,9.1299367E-1,9.6771973E-1,-1.4723088E-1,5.362192E-1,9.965882E-1,-3.3555737E-1,9.8158514E-1,3.000368E-1,1.1161614E-1,-1.3596326E-1,5.2971166E-2,3.1451488E-1,3.618831E-2],"categories":[],"categories_nodes":[],"categories_segments":[],"categories_sizes":[],"default_left":[0,0,0,0,0,0,0,0,1,0,0,0,0,0,0,0,0],"id":20,"left_children":[1,3,-1,-1,5,7,-1,9,11,13,15,-1,-1,-1,-1,-1,-1],"loss_changes":[1.6860696E2,1.0633293E2,0E0,0E0,2.1750092E1,2.7901154E0,0E0,7.6676054E0,1.775055E-1,5.0999403E-1,6.076107E-1,0E0,0E0,0E0,0E0,0E0,0E0],"parents":[2147483647,0,0,1,1,4,4,5,5,7,7,8,8,9,9,10,10],"right_children":[2,4,-1,-1,6,8,-1,10,12,14,16,-1,-1,-1,-1,-1,-1],"split_conditions":[1.464E3,2.2033E4,-1.6087072E-1,-1.5938696E-1,4.9133E4,2.4233E4,-1.4723088E-1,2.61E2,3.36E2,1.7E2,1.33363E2,3.000368E-1,1.1161614E-1,-1.3596326E-1,5.2971166E-2,3.1451488E-1,3.618831E-2],"split_indices":[0,1,0,0,1,1,0,11,6,8,3,0,0,0,0,0,0],"split_type":[0,0,0,0,0,0,0,0,0,0,0,0,0,0,0,0,0],"sum_hessian":[5.231832E2,3.3771652E2,1.8546672E2,6.1777126E1,2.759394E2,2.6588443E2,1.0054951E1,1.7900309E1,2.4798413E2,6.1360083E0,1.1764301E1,2.459906E2,1.99353E0,5.083253E0,1.0527551E0,1.071526E1,1.0490417E0],"tree_param":{"num_deleted":"0","num_feature":"13","num_nodes":"17","size_leaf_vector":"1"}},{"base_weights":[-3.2804045E-1,6.8779904E-1,-1.6119912E-1,-1.4945605E-1,9.694873E-1,3.0134386E-1,2.3836432E-1,1.8609951E-1,-9.315288E-2],"categories":[],"categories_nodes":[],"categories_segments":[],"categories_sizes":[],"default_left":[0,0,0,0,0,0,0,0,0],"id":21,"left_children":[1,3,-1,-1,5,-1,7,-1,-1],"loss_changes":[7.8876526E1,2.1703625E1,0E0,0E0,1.082428E0,0E0,9.6226656E-1,0E0,0E0],"parents":[2147483647,0,0,1,1,4,4,6,6],"right_children":[2,4,-1,-1,6,-1,8,-1,-1],"split_conditions":[9.2E3,3.2E3,-1.6119912E-1,-1.4945605E-1,7.733E3,3.0134386E-1,4.236E0,1.8609951E-1,-9.315288E-2],"split_indices":[1,1,0,0,1,0,3,0,0],"split_type":[0,0,0,0,0,0,0,0,0],"sum_hessian":[3.682621E2,6.2519955E1,3.0574213E2,1.1851839E1,5.0668114E1,4.799704E1,2.6710737E0,1.4982414E0,1.1728324E0],"tree_param":{"num_deleted":"0","num_feature":"13","num_nodes":"9","size_leaf_vector":"1"}},{"base_weights":[1.7818117E-1,-1.6086534E-1,5.7617474E-1,9.2884856E-1,-1.5970021E-1,9.881443E-1,-1.4787027E-1,9.9526304E-1,5.463462E-1,6.5238345E-1,3.0169395E-1,2.4287485E-1,-4.4639245E-2,3.128383E-1,-1.15796655E-1],"categories":[],"categories_nodes":[],"categories_segments":[],"categories_sizes":[],"default_left":[0,0,0,0,0,0,0,0,1,1,0,0,0,0,0],"id":22,"left_children":[1,-1,3,5,-1,7,-1,9,11,13,-1,-1,-1,-1,-1],"loss_changes":[1.4394763E2,0E0,1.27520996E2,2.12986E1,0E0,2.026062E-1,0E0,1.710968E-1,1.2147721E0,4.3249707E0,0E0,0E0,0E0,0E0,0E0],"parents":[2147483647,0,0,2,2,3,3,5,5,7,7,8,8,9,9],"right_children":[2,-1,4,6,-1,8,-1,10,12,14,-1,-1,-1,-1,-1],"split_conditions":[1.92E3,-1.6086534E-1,9.0299E4,2.607E3,-1.5970021E-1,2.594E3,-1.4787027E-1,1.942E3,1.2627E2,2.99E2,3.0169395E-1,2.4287485E-1,-4.4639245E-2,3.128383E-1,-1.15796655E-1],"split_indices":[0,0,1,0,0,0,0,0,4,7,0,0,0,0,0],"split_type":[0,0,0,0,0,0,0,0,0,0,0,0,0,0,0],"sum_hessian":[5.041898E2,1.8026558E2,3.239242E2,2.458642E2,7.806001E1,2.3631345E2,9.550744E0,2.313332E2,4.9802437E0,8.675735E0,2.2265747E2,3.4929204E0,1.4873234E0,6.3020215E0,2.3737144E0],"tree_param":{"num_deleted":"0","num_feature":"13","num_nodes":"15","size_leaf_vector":"1"}},{"base_weights":[1.5027724E-1,-1.6098686E-1,6.508E-1,7.78961E-1,-1.5628412E-1,1.8591338E-1,9.882172E-1,-1.5717539E-1,9.6663314E-1,3.002385E-1,-1.0848784E-1,3.0466664E-1,-8.4206924E-2],"categories":[],"categories_nodes":[],"categories_segments":[],"categories_sizes":[],"default_left":[0,0,0,0,0,0,0,0,1,0,0,0,0],"id":23,"left_children":[1,-1,3,5,-1,7,9,-1,11,-1,-1,-1,-1],"loss_changes":[1.7005391E2,0E0,4.3353592E1,3.1857956E1,0E0,3.8508644E1,3.5982666E0,0E0,2.2992458E0,0E0,0E0,0E0,0E0],"parents":[2147483647,0,0,2,2,3,3,5,5,6,6,8,8],"right_children":[2,-1,4,6,-1,8,10,-1,12,-1,-1,-1,-1],"split_conditions":[2.196E3,-1.6098686E-1,3.231E3,7.9799E4,-1.5628412E-1,2.594E3,1.07699E5,-1.5717539E-1,2.59E2,3.002385E-1,-1.0848784E-1,3.0466664E-1,-8.4206924E-2],"split_indices":[0,0,0,1,0,0,1,0,6,0,0,0,0],"split_type":[0,0,0,0,0,0,0,0,0,0,0,0,0],"sum_hessian":[4.926014E2,2.0761107E2,2.8499033E2,2.5719464E2,2.7795698E1,6.757384E1,1.896208E2,3.556606E1,3.2007774E1,1.8812645E2,1.4943584E0,3.0978554E1,1.0292222E0],"tree_param":{"num_deleted":"0","num_feature":"13","num_nodes":"13","size_leaf_vector":"1"}},{"base_weights":[-3.6455706E-1,7.781413E-1,-5.239792E-1,2.5099313E-1,-1.0190693E-1,-1.5834138E-1,-2.9991335E-1,-1.3110033E-1,7.008586E-2],"categories":[],"categories_nodes":[],"categories_segments":[],"categories_sizes":[],"default_left":[0,1,0,0,0,0,1,0,0],"id":24,"left_children":[1,3,5,-1,-1,-1,7,-1,-1],"loss_changes":[5.330541E1,2.6354122E0,6.06308E-2,0E0,0E0,0E0,5.8507997E-1,0E0,0E0],"parents":[2147483647,0,0,1,1,2,2,6,6],"right_children":[2,4,6,-1,-1,-1,8,-1,-1],"split_conditions":[1.11E2,5.32E2,3.442E3,2.5099313E-1,-1.0190693E-1,-1.5834138E-1,3.44E2,-1.3110033E-1,7.008586E-2],"split_indices":[0,5,0,0,0,0,7,0,0],"split_type":[0,0,0,0,0,0,0,0,0],"sum_hessian":[2.8937314E2,3.4953568E1,2.5441956E2,3.3454266E1,1.4993042E0,2.4881602E2,5.603536E0,4.6020093E0,1.0015265E0],"tree_param":{"num_deleted":"0","num_feature":"13","num_nodes":"9","size_leaf_vector":"1"}},{"base_weights":[-5.169198E-1,-1.5725227E-1,-3.6515046E-2,-1.19484395E-1,1.9552323E-1],"categories":[],"categories_nodes":[],"categories_segments":[],"categories_sizes":[],"default_left":[0,0,1,0,0],"id":25,"left_children":[1,-1,3,-1,-1],"loss_changes":[9.042206E-1,0E0,1.5085683E0,0E0,0E0],"parents":[2147483647,0,0,2,2],"right_children":[2,-1,4,-1,-1],"split_conditions":[1.16199E5,-1.5725227E-1,2.16E2,-1.19484395E-1,1.9552323E-1],"split_indices":[1,0,5,0,0],"split_type":[0,0,0,0,0],"sum_hessian":[2.6394858E2,2.599323E2,4.01625E0,2.9086905E0,1.1075599E0],"tree_param":{"num_deleted":"0","num_feature":"13","num_nodes":"5","size_leaf_vector":"1"}},{"base_weights":[3.4173468E-1,-1.5526831E-1,4.104165E-1,5.7582796E-1,1.596787E-1,3.0599117E-1,7.980546E-1,-1.5724151E-1,7.7134407E-1,7.4790174E-1,-4.251405E-1,2.4258013E-1,-9.0831906E-2,3.758673E-1,2.3700117E-1,3.0020164E-2,8.146489E-1,-1.56508E-1,6.6953343E-1,-1.21579684E-1,2.602341E-1,2.4532945E-1,-1.3232942E-1,6.3691944E-2,2.4699827E-1,2.924978E-3,2.8947482E-1],"categories":[],"categories_nodes":[],"categories_segments":[],"categories_sizes":[],"default_left":[0,0,0,0,0,0,0,0,0,0,0,0,0,0,0,0,0,0,1,0,0,0,0,0,0,0,0],"id":26,"left_children":[1,-1,3,5,7,9,11,-1,13,15,17,-1,-1,19,-1,21,23,-1,25,-1,-1,-1,-1,-1,-1,-1,-1],"loss_changes":[3.167688E1,0E0,2.0406296E1,1.7589409E1,8.31508E1,4.4237713E1,2.130928E0,0E0,4.7665405E-1,4.052643E0,5.8292065E0,0E0,0E0,2.897738E0,0E0,3.432305E0,2.3196411E-1,0E0,8.949375E-1,0E0,0E0,0E0,0E0,0E0,0E0,0E0,0E0],"parents":[2147483647,0,0,2,2,3,3,4,4,5,5,6,6,8,8,9,9,10,10,13,13,15,15,16,16,18,18],"right_children":[2,-1,4,6,8,10,12,-1,14,16,18,-1,-1,20,-1,22,24,-1,26,-1,-1,-1,-1,-1,-1,-1,-1],"split_conditions":[4.16E2,-1.5526831E-1,1.942E3,4.9133E4,3.214E3,7.24E2,6.4733E4,-1.5724151E-1,3.231E3,4.72E2,1.449E3,2.4258013E-1,-9.0831906E-2,1.07699E5,2.3700117E-1,1.19E2,1.17E2,-1.56508E-1,3.23E2,-1.21579684E-1,2.602341E-1,2.4532945E-1,-1.3232942E-1,6.3691944E-2,2.4699827E-1,2.924978E-3,2.8947482E-1],"split_indices":[0,0,0,1,0,0,1,0,0,0,0,0,0,1,0,5,12,0,6,0,0,0,0,0,0,0,0],"split_type":[0,0,0,0,0,0,0,0,0,0,0,0,0,0,0,0,0,0,0,0,0,0,0,0,0,0,0],"sum_hessian":[5.3213324E2,3.8900745E1,4.9323248E2,2.9640076E2,1.9683173E2,1.3493457E2,1.6146619E2,9.3002174E1,1.0382955E2,8.408748E1,5.0847088E1,1.6019696E2,1.2692142E0,5.630898E0,9.8198654E1,7.276524E0,7.681095E1,4.7206768E1,3.64032E0,2.2427285E0,3.3881698E0,2.4478092E0,4.828715E0,1.4526519E0,7.53583E1,1.4452145E0,2.1951056E0],"tree_param":{"num_deleted":"0","num_feature":"13","num_nodes":"27","size_leaf_vector":"1"}},{"base_weights":[-1.9966388E-1,5.285599E-1,-1.582386E-1,-1.5053567E-1,7.416049E-1,7.8278536E-1,-1.1596163E-1,-9.62689E-2,8.072592E-1,5.288022E-1,8.284724E-1,-1.0177692E-1,2.1604042E-1,2.5033262E-1,8.06658E-2],"categories":[],"categories_nodes":[],"categories_segments":[],"categories_sizes":[],"default_left":[0,0,0,0,0,0,0,0,0,0,1,0,0,0,0],"id":27,"left_children":[1,3,-1,-1,5,7,-1,-1,9,11,13,-1,-1,-1,-1],"loss_changes":[7.795149E1,2.2652746E1,0E0,0E0,4.228874E0,2.4704018E0,0E0,0E0,3.668213E-2,1.648469E0,1.9226074E-2,0E0,0E0,0E0,0E0],"parents":[2147483647,0,0,1,1,4,4,5,5,8,8,9,9,10,10],"right_children":[2,4,-1,-1,6,8,-1,-1,10,12,14,-1,-1,-1,-1],"split_conditions":[1.6233E4,2.22E2,-1.582386E-1,-1.5053567E-1,4.72E2,4.764E0,-1.1596163E-1,-9.62689E-2,3.627E1,2.13E2,1.4134E2,-1.0177692E-1,2.1604042E-1,2.5033262E-1,8.06658E-2],"split_indices":[1,0,0,0,0,3,0,0,3,7,4,0,0,0,0],"split_type":[0,0,0,0,0,0,0,0,0,0,0,0,0,0,0],"sum_hessian":[3.243846E2,1.00501625E2,2.23883E2,1.6987926E1,8.3513695E1,8.086791E1,2.6457794E0,1.4915736E0,7.937634E1,7.454315E0,7.192203E1,1.2066635E0,6.2476516E0,7.067687E1,1.245155E0],"tree_param":{"num_deleted":"0","num_feature":"13","num_nodes":"15","size_leaf_vector":"1"}},{"base_weights":[2.0188668E-1,5.470517E-1,-1.5789555E-1,-1.5600973E-1,7.4876153E-1,7.8926647E-1,-1.4155567E-1,4.323743E-1,8.104073E-1,2.415169E-1,-1.3093919E-1,2.4403656E-1,8.974723E-2],"categories":[],"categories_nodes":[],"categories_segments":[],"categories_sizes":[],"default_left":[0,0,0,0,0,0,0,0,1,0,0,0,0],"id":28,"left_children":[1,3,-1,-1,5,7,-1,9,11,-1,-1,-1,-1],"loss_changes":[1.1524532E2,6.728103E1,0E0,0E0,1.3315002E1,1.5640869E0,0E0,5.6403236E0,1.2815857E-1,0E0,0E0,0E0,0E0],"parents":[2147483647,0,0,1,1,4,4,5,5,7,7,8,8],"right_children":[2,4,-1,-1,6,8,-1,10,12,-1,-1,-1,-1],"split_conditions":[1.464E3,2.2033E4,-1.5789555E-1,-1.5600973E-1,4.9133E4,2.3966E4,-1.4155567E-1,2.75E2,3.36E2,2.415169E-1,-1.3093919E-1,2.4403656E-1,8.974723E-2],"split_indices":[0,1,0,0,1,1,0,0,6,0,0,0,0],"split_type":[0,0,0,0,0,0,0,0,0,0,0,0,0],"sum_hessian":[4.5635806E2,3.0977518E2,1.4658289E2,4.8996414E1,2.6077875E2,2.5274503E2,8.033728E0,1.5333968E1,2.3741106E2,1.0782361E1,4.551607E0,2.3541649E2,1.9945763E0],"tree_param":{"num_deleted":"0","num_feature":"13","num_nodes":"13","size_leaf_vector":"1"}},{"base_weights":[-3.1174123E-1,5.712604E-1,-1.5830606E-1,-1.4403078E-1,7.784609E-1,3.4583995E-1,2.4565707E-1,-1.2616703E-1,2.6046133E-1],"categories":[],"categories_nodes":[],"categories_segments":[],"categories_sizes":[],"default_left":[0,0,0,0,0,0,0,0,0],"id":29,"left_children":[1,3,-1,-1,5,7,-1,-1,-1],"loss_changes":[5.7734425E1,1.3371716E1,0E0,0E0,5.945492E-1,2.7753255E0,0E0,0E0,0E0],"parents":[2147483647,0,0,1,1,4,4,5,5],"right_children":[2,4,-1,-1,6,8,-1,-1,-1],"split_conditions":[9.2E3,3.2E3,-1.5830606E-1,-1.4403078E-1,1.29E2,5.32E2,2.4565707E-1,-1.2616703E-1,2.6046133E-1],"split_indices":[1,1,0,0,6,5,0,0,0],"split_type":[0,0,0,0,0,0,0,0,0],"sum_hessian":[3.0020038E2,5.866673E1,2.4153365E2,9.441616E0,4.9225113E1,5.0203977E0,4.4204716E1,2.1138787E0,2.906519E0],"tree_param":{"num_deleted":"0","num_feature":"13","num_nodes":"9","size_leaf_vector":"1"}},{"base_weights":[1.5926754E-1,-1.5788643E-1,4.912284E-1,7.609106E-1,-1.5645957E-1,8.051498E-1,-1.4221138E-1,8.110313E-1,4.4851246E-1,5.448567E-1,2.4572274E-1,-5.3672463E-2,2.0904848E-1,2.5154892E-1,-1.0847653E-1],"categories":[],"categories_nodes":[],"categories_segments":[],"categories_sizes":[],"default_left":[0,0,0,0,0,0,0,0,0,1,0,0,0,0,0],"id":30,"left_children":[1,-1,3,5,-1,7,-1,9,11,13,-1,-1,-1,-1,-1],"loss_changes":[1.00012886E2,0E0,8.119891E1,1.3167938E1,0E0,1.10946655E-1,0E0,2.7786255E-2,1.0452749E0,2.8270168E0,0E0,0E0,0E0,0E0,0E0],"parents":[2147483647,0,0,2,2,3,3,5,5,7,7,8,8,9,9],"right_children":[2,-1,4,6,-1,8,-1,10,12,14,-1,-1,-1,-1,-1],"split_conditions":[1.92E3,-1.5788643E-1,9.0299E4,2.607E3,-1.5645957E-1,2.594E3,-1.4221138E-1,1.942E3,1.23E2,2.99E2,2.4572274E-1,-5.3672463E-2,2.0904848E-1,2.5154892E-1,-1.0847653E-1],"split_indices":[0,0,1,0,0,0,0,0,5,7,0,0,0,0,0],"split_type":[0,0,0,0,0,0,0,0,0,0,0,0,0,0,0],"sum_hessian":[4.3733115E2,1.4248662E2,2.948445E2,2.3303865E2,6.1805855E1,2.2531528E2,7.7233796E0,2.2040633E2,4.908958E0,8.482069E0,2.1192426E2,1.4711952E0,3.4377627E0,6.4632754E0,2.018793E0],"tree_param":{"num_deleted":"0","num_feature":"13","num_nodes":"15","size_leaf_vector":"1"}},{"base_weights":[1.3411845E-1,-1.5803331E-1,5.476446E-1,6.4674395E-1,-1.5231602E-1,1.6735794E-1,8.0151635E-1,-1.5338738E-1,7.7771926E-1,8.1204903E-1,-1.0382017E-1,2.526934E-1,9.7041145E-2,7.011348E-2,2.4449255E-1,-1.0082119E-1,1.4835714E-1],"categories":[],"categories_nodes":[],"categories_segments":[],"categories_sizes":[],"default_left":[0,0,0,0,0,0,0,0,0,0,0,0,0,0,0,0,0],"id":31,"left_children":[1,-1,3,5,-1,7,9,-1,11,13,-1,-1,15,-1,-1,-1,-1],"loss_changes":[1.1713694E2,0E0,2.788507E1,1.776973E1,0E0,2.5315926E1,2.4826736E0,0E0,1.3282013E0,1.15501404E-1,0E0,0E0,8.392452E-1,0E0,0E0,0E0,0E0],"parents":[2147483647,0,0,2,2,3,3,5,5,6,6,8,8,9,9,12,12],"right_children":[2,-1,4,6,-1,8,10,-1,12,14,-1,-1,16,-1,-1,-1,-1],"split_conditions":[2.196E3,-1.5803331E-1,3.231E3,7.9799E4,-1.5231602E-1,2.594E3,1.07699E5,-1.5338738E-1,2.54E2,3.214E0,-1.0382017E-1,2.526934E-1,2.607E3,7.011348E-2,2.4449255E-1,-1.0082119E-1,1.4835714E-1],"split_indices":[0,0,0,1,0,0,1,0,6,4,0,0,0,0,0,0,0],"split_type":[0,0,0,0,0,0,0,0,0,0,0,0,0,0,0,0,0],"sum_hessian":[4.2654987E2,1.640661E2,2.6248376E2,2.4030608E2,2.2177696E1,5.9156948E1,1.8114912E2,2.8088352E1,3.1068596E1,1.7979137E2,1.3577626E0,2.8159023E1,2.909573E0,1.3122008E0,1.7847916E2,1.4663197E0,1.4432535E0],"tree_param":{"num_deleted":"0","num_feature":"13","num_nodes":"17","size_leaf_vector":"1"}},{"base_weights":[-3.5188994E-1,6.7095166E-1,-5.152384E-1,2.167867E-1,-9.454857E-2,-1.5603495E-1,-2.517979E-1,6.970768E-2,-1.2291642E-1],"categories":[],"categories_nodes":[],"categories_segments":[],"categories_sizes":[],"default_left":[0,1,0,0,0,0,0,0,0],"id":32,"left_children":[1,3,5,-1,-1,-1,7,-1,-1],"loss_changes":[3.8970734E1,1.8719721E0,1.2593079E-1,0E0,0E0,0E0,5.2129376E-1,0E0,0E0],"parents":[2147483647,0,0,1,1,2,2,6,6],"right_children":[2,4,6,-1,-1,-1,8,-1,-1],"split_conditions":[1.11E2,5.32E2,1.15266E5,2.167867E-1,-9.454857E-2,-1.5603495E-1,1.15633E5,6.970768E-2,-1.2291642E-1],"split_indices":[0,5,1,0,0,0,1,0,0],"split_type":[0,0,0,0,0,0,0,0,0],"sum_hessian":[2.3017743E2,3.1269466E1,1.9890797E2,2.9966476E1,1.302989E0,1.9433522E2,4.572754E0,1.0087677E0,3.5639863E0],"tree_param":{"num_deleted":"0","num_feature":"13","num_nodes":"9","size_leaf_vector":"1"}},{"base_weights":[-5.062725E-1,-5.1549363E-1,3.6436122E-2,-1.5606754E-1,-3.094617E-1,-1.11449294E-1,2.0889565E-1,7.0312224E-2,-1.3157997E-1],"categories":[],"categories_nodes":[],"categories_segments":[],"categories_sizes":[],"default_left":[0,0,1,0,1,0,0,0,0],"id":33,"left_children":[1,3,5,-1,7,-1,-1,-1,-1],"loss_changes":[1.0583916E0,3.8196564E-2,1.4443736E0,0E0,5.982968E-1,0E0,0E0,0E0,0E0],"parents":[2147483647,0,0,1,1,2,2,4,4],"right_children":[2,4,6,-1,8,-1,-1,-1,-1],"split_conditions":[3.475E3,1.12733E5,2.16E2,-1.5606754E-1,1.025E0,-1.11449294E-1,2.0889565E-1,7.0312224E-2,-1.3157997E-1],"split_indices":[0,1,5,0,2,0,0,0,0],"split_type":[0,0,0,0,0,0,0,0,0],"sum_hessian":[2.0673784E2,2.0333315E2,3.404695E0,1.9727776E2,6.055399E0,2.3740826E0,1.0306125E0,1.0056069E0,5.049792E0],"tree_param":{"num_deleted":"0","num_feature":"13","num_nodes":"9","size_leaf_vector":"1"}},{"base_weights":[3.0830115E-1,-1.5211411E-1,3.6807907E-1,5.095515E-1,1.459612E-1,2.7970898E-1,6.913371E-1,-1.5465175E-1,6.604246E-1,6.521215E-1,-4.0410522E-1,7.0055634E-1,-8.30407E-2,2.107528E-1,4.8079088E-1,4.012352E-2,7.077323E-1,-1.5354303E-1,5.744911E-1,2.126896E-1,3.4962875E-1,5.973077E-1,-1.5411846E-1,2.0154314E-1,-1.2538786E-1,5.1958207E-2,2.1475665E-1,2.4217999E-1,2.6801869E-3,-1.1142564E-1,2.0856869E-1,2.8978996E-3,1.9215116E-1],"categories":[],"categories_nodes":[],"categories_segments":[],"categories_sizes":[],"default_left":[0,0,0,0,0,0,0,0,1,0,0,0,0,0,0,0,0,0,0,0,1,0,0,0,0,0,0,0,0,0,0,0,0],"id":34,"left_children":[1,-1,3,5,7,9,11,-1,13,15,17,19,-1,-1,21,23,25,-1,27,-1,29,31,-1,-1,-1,-1,-1,-1,-1,-1,-1,-1,-1],"loss_changes":[2.2390339E1,0E0,1.3281174E1,1.0638306E1,5.7094086E1,2.984687E1,1.4798508E0,0E0,3.7475586E-1,2.5442429E0,4.6761923E0,1.7411041E-1,0E0,0E0,2.747045E0,2.4095652E0,1.7663956E-1,0E0,5.9749925E-1,0E0,1.583775E0,4.8403692E-1,0E0,0E0,0E0,0E0,0E0,0E0,0E0,0E0,0E0,0E0,0E0],"parents":[2147483647,0,0,2,2,3,3,4,4,5,5,6,6,8,8,9,9,10,10,11,11,14,14,15,15,16,16,18,18,20,20,21,21],"right_children":[2,-1,4,6,8,10,12,-1,14,16,18,20,-1,-1,22,24,26,-1,28,-1,30,32,-1,-1,-1,-1,-1,-1,-1,-1,-1,-1,-1],"split_conditions":[4.16E2,-1.5211411E-1,1.942E3,4.9133E4,3.214E3,7.24E2,6.4733E4,-1.5465175E-1,2.77E2,4.72E2,1.449E3,6.44E4,-8.30407E-2,2.107528E-1,3.59E2,1.19E2,1.24E2,-1.5354303E-1,1.204E0,2.126896E-1,2.99E2,2.24E2,-1.5411846E-1,2.0154314E-1,-1.2538786E-1,5.1958207E-2,2.1475665E-1,2.4217999E-1,2.6801869E-3,-1.1142564E-1,2.0856869E-1,2.8978996E-3,1.9215116E-1],"split_indices":[0,0,0,1,0,0,1,0,6,0,0,1,0,0,11,5,6,0,2,0,7,11,0,0,0,0,0,0,0,0,0,0,0],"split_type":[0,0,0,0,0,0,0,0,0,0,0,0,0,0,0,0,0,0,0,0,0,0,0,0,0,0,0,0,0,0,0,0,0],"sum_hessian":[4.5455588E2,3.0538609E1,4.2401727E2,2.5824225E2,1.6577504E2,1.1516758E2,1.4307466E2,7.2524826E1,9.325021E1,7.459091E1,4.057666E1,1.4199886E2,1.0758116E0,7.319196E1,2.0058249E1,6.3567123E0,6.82342E1,3.698326E1,3.5934017E0,1.3767949E2,4.319362E0,1.831221E1,1.7460386E0,2.475912E0,3.8808E0,1.355534E0,6.687867E1,2.24288E0,1.3505214E0,1.3752936E0,2.9440687E0,1.3376876E0,1.6974522E1],"tree_param":{"num_deleted":"0","num_feature":"13","num_nodes":"33","size_leaf_vector":"1"}},{"base_weights":[-1.8989642E-1,4.662544E-1,-1.5591404E-1,-1.4632852E-1,6.4270496E-1,6.769585E-1,-1.0753518E-1,-8.784152E-2,6.977527E-1,4.2430288E-1,7.1409345E-1,1.7327988E-1,-3.1413563E-2,2.1689464E-1,9.444658E-2],"categories":[],"categories_nodes":[],"categories_segments":[],"categories_sizes":[],"default_left":[0,0,0,0,0,0,0,0,0,0,1,0,0,0,0],"id":35,"left_children":[1,3,-1,-1,5,7,-1,-1,9,11,13,-1,-1,-1,-1],"loss_changes":[5.7241817E1,1.5233652E1,0E0,0E0,2.822525E0,1.6781502E0,0E0,0E0,1.8051147E-2,5.8887136E-1,7.8086853E-3,0E0,0E0,0E0,0E0],"parents":[2147483647,0,0,1,1,4,4,5,5,8,8,9,9,10,10],"right_children":[2,4,-1,-1,6,8,-1,-1,10,12,14,-1,-1,-1,-1],"split_conditions":[1.6233E4,2.22E2,-1.5591404E-1,-1.4632852E-1,4.72E2,4.764E0,-1.0753518E-1,-8.784152E-2,9.4E1,1.1166E4,1.50255E2,1.7327988E-1,-3.1413563E-2,2.1689464E-1,9.444658E-2],"split_indices":[1,0,0,0,0,3,0,0,5,1,4,0,0,0,0],"split_type":[0,0,0,0,0,0,0,0,0,0,0,0,0,0,0],"sum_hessian":[2.6238696E2,8.763292E1,1.7475403E2,1.3402927E1,7.4229996E1,7.208742E1,2.1425774E0,1.2386855E0,7.084873E1,5.51559E0,6.5333145E1,4.2051816E0,1.3104082E0,6.3117256E1,2.2158844E0],"tree_param":{"num_deleted":"0","num_feature":"13","num_nodes":"15","size_leaf_vector":"1"}},{"base_weights":[1.8408789E-1,4.8477826E-1,-1.5547468E-1,-1.5305306E-1,6.5255517E-1,6.8590474E-1,-1.3574634E-1,3.8257337E-1,7.062884E-1,-2.8514132E-1,2.0105286E-1,2.1317716E-1,2.6179805E-1,4.060005E-2,-1.2623674E-1,1.1900982E-1,5.704555E-3],"categories":[],"categories_nodes":[],"categories_segments":[],"categories_sizes":[],"default_left":[0,0,0,0,0,0,0,0,1,0,0,0,0,0,0,0,0],"id":36,"left_children":[1,3,-1,-1,5,7,-1,9,11,13,-1,-1,15,-1,-1,-1,-1],"loss_changes":[8.127876E1,4.5266438E1,0E0,0E0,8.814987E0,1.1173172E0,0E0,3.3236845E0,2.1380615E-1,3.7706208E-1,0E0,0E0,1.0996127E-1,0E0,0E0,0E0,0E0],"parents":[2147483647,0,0,1,1,4,4,5,5,7,7,8,8,9,9,12,12],"right_children":[2,4,-1,-1,6,8,-1,10,12,14,-1,-1,16,-1,-1,-1,-1],"split_conditions":[1.464E3,2.2033E4,-1.5547468E-1,-1.5305306E-1,4.9133E4,2.4233E4,-1.3574634E-1,2.61E2,3.07E2,1.26E2,2.0105286E-1,2.1317716E-1,1.012E3,4.060005E-2,-1.2623674E-1,1.1900982E-1,5.704555E-3],"split_indices":[0,1,0,0,1,1,0,11,10,10,0,0,0,0,0,0,0],"split_type":[0,0,0,0,0,0,0,0,0,0,0,0,0,0,0,0,0],"sum_hessian":[3.8267865E2,2.6817505E2,1.1450361E2,3.840195E1,2.297731E2,2.2341E2,6.363091E0,1.5312461E1,2.0809755E2,4.6124644E0,1.0699997E1,2.0550981E2,2.587736E0,1.125624E0,3.4868405E0,1.2559208E0,1.3318151E0],"tree_param":{"num_deleted":"0","num_feature":"13","num_nodes":"17","size_leaf_vector":"1"}},{"base_weights":[-2.991754E-1,5.014624E-1,-1.5599313E-1,-1.3854983E-1,6.7057145E-1,2.8872964E-1,2.1261807E-1,-1.1798507E-1,2.1296602E-1],"categories":[],"categories_nodes":[],"categories_segments":[],"categories_sizes":[],"default_left":[0,0,0,0,0,0,0,0,0],"id":37,"left_children":[1,3,-1,-1,5,7,-1,-1,-1],"loss_changes":[4.2900394E1,8.886206E0,0E0,0E0,4.5381355E-1,1.9431882E0,0E0,0E0,0E0],"parents":[2147483647,0,0,1,1,4,4,5,5],"right_children":[2,4,-1,-1,6,8,-1,-1,-1],"split_conditions":[9.2E3,3.2E3,-1.5599313E-1,-1.3854983E-1,1.29E2,5.32E2,2.1261807E-1,-1.1798507E-1,2.1296602E-1],"split_indices":[1,1,0,0,6,5,0,0,0],"split_type":[0,0,0,0,0,0,0,0,0],"sum_hessian":[2.401988E2,5.1648327E1,1.8855048E2,7.454473E0,4.419385E1,4.793177E0,3.9400677E1,1.855157E0,2.9380202E0],"tree_param":{"num_deleted":"0","num_feature":"13","num_nodes":"9","size_leaf_vector":"1"}},{"base_weights":[1.465812E-1,-1.5545724E-1,4.3867278E-1,6.63647E-1,-1.5389486E-1,7.005858E-1,-1.3509475E-1,2.1198298E-1,3.679913E-1,-5.176617E-2,1.7869653E-1],"categories":[],"categories_nodes":[],"categories_segments":[],"categories_sizes":[],"default_left":[0,0,0,0,0,0,0,0,0,0,0],"id":38,"left_children":[1,-1,3,5,-1,7,-1,-1,9,-1,-1],"loss_changes":[7.136744E1,0E0,5.4951565E1,8.822517E0,0E0,1.4169312E-1,0E0,0E0,7.9853165E-1,0E0,0E0],"parents":[2147483647,0,0,2,2,3,3,5,5,8,8],"right_children":[2,-1,4,6,-1,8,-1,-1,10,-1,-1],"split_conditions":[1.92E3,-1.5545724E-1,2.607E3,9.0299E4,-1.5389486E-1,2.594E3,-1.3509475E-1,2.1198298E-1,1.23E2,-5.176617E-2,1.7869653E-1],"split_indices":[0,0,0,1,0,0,0,0,5,0,0],"split_type":[0,0,0,0,0,0,0,0,0,0,0],"sum_hessian":[3.6537247E2,1.1129708E2,2.540754E2,2.0574039E2,4.8335E1,1.9949623E2,6.2441654E0,1.948426E2,4.6536217E0,1.4508697E0,3.2027524E0],"tree_param":{"num_deleted":"0","num_feature":"13","num_nodes":"11","size_leaf_vector":"1"}},{"base_weights":[1.2298482E-1,-1.5563878E-1,4.8433593E-1,5.677427E-1,-1.485659E-1,1.8678103E-1,7.0876956E-1,-4.445402E-1,2.0762992E-1,2.1568681E-1,-9.659536E-2,1.1785142E-1,-1.5392143E-1],"categories":[],"categories_nodes":[],"categories_segments":[],"categories_sizes":[],"default_left":[0,0,0,0,0,0,0,0,0,0,0,0,0],"id":39,"left_children":[1,-1,3,5,-1,7,9,11,-1,-1,-1,-1,-1],"loss_changes":[8.3061485E1,0E0,1.8988369E1,1.1228989E1,0E0,1.8967377E1,1.8482208E0,1.7287464E0,0E0,0E0,0E0,0E0,0E0],"parents":[2147483647,0,0,2,2,3,3,5,5,6,6,7,7],"right_children":[2,-1,4,6,-1,8,10,12,-1,-1,-1,-1,-1],"split_conditions":[2.196E3,-1.5563878E-1,3.231E3,2.607E3,-1.485659E-1,9.0299E4,1.07699E5,1.19E2,2.0762992E-1,2.1568681E-1,-9.659536E-2,1.1785142E-1,-1.5392143E-1],"split_indices":[0,0,0,0,0,1,1,5,0,0,0,0,0],"split_type":[0,0,0,0,0,0,0,0,0,0,0,0,0],"sum_hessian":[3.5608194E2,1.2811194E2,2.2797002E2,2.1046945E2,1.7500555E1,5.7491024E1,1.5297844E2,2.561239E1,3.1878633E1,1.5178096E2,1.1974772E0,1.5795628E0,2.403283E1],"tree_param":{"num_deleted":"0","num_feature":"13","num_nodes":"13","size_leaf_vector":"1"}},{"base_weights":[-3.4145015E-1,6.012174E-1,-5.0762093E-1,1.9499023E-1,-8.7237366E-2,-1.5416077E-1,-2.0907846E-1,-1.1577511E-1,7.073515E-2],"categories":[],"categories_nodes":[],"categories_segments":[],"categories_sizes":[],"default_left":[0,1,0,0,0,0,0,0,0],"id":40,"left_children":[1,3,5,-1,-1,-1,7,-1,-1],"loss_changes":[2.8774555E1,1.393302E0,1.817894E-1,0E0,0E0,0E0,4.7368205E-1,0E0,0E0],"parents":[2147483647,0,0,1,1,2,2,6,6],"right_children":[2,4,6,-1,-1,-1,8,-1,-1],"split_conditions":[1.11E2,5.32E2,1.15266E5,1.9499023E-1,-8.7237366E-2,-1.5416077E-1,3.37E2,-1.1577511E-1,7.073515E-2],"split_indices":[0,5,1,0,0,0,11,0,0],"split_type":[0,0,0,0,0,0,0,0,0],"sum_hessian":[1.8074585E2,2.6694275E1,1.5405157E2,2.5568262E1,1.126013E0,1.5018701E2,3.8645597E0,2.860125E0,1.0044346E0],"tree_param":{"num_deleted":"0","num_feature":"13","num_nodes":"9","size_leaf_vector":"1"}},{"base_weights":[-4.9620476E-1,-5.0789666E-1,8.167409E-2,-1.5419456E-1,-2.6746106E-1,-1.0596072E-1,2.1052782E-1,6.794982E-2,-1.248757E-1],"categories":[],"categories_nodes":[],"categories_segments":[],"categories_sizes":[],"default_left":[0,0,1,0,1,0,0,0,0],"id":41,"left_children":[1,3,5,-1,7,-1,-1,-1,-1],"loss_changes":[1.1330185E0,9.442139E-2,1.3441061E0,0E0,5.3505147E-1,0E0,0E0,0E0,0E0],"parents":[2147483647,0,0,1,1,2,2,4,4],"right_children":[2,4,6,-1,8,-1,-1,-1,-1],"split_conditions":[3.475E3,1.12733E5,3.17E2,-1.5419456E-1,1.47E2,-1.0596072E-1,2.1052782E-1,6.794982E-2,-1.248757E-1],"split_indices":[0,1,10,0,6,0,0,0,0],"split_type":[0,0,0,0,0,0,0,0,0],"sum_hessian":[1.6055371E2,1.5748843E2,3.0652711E0,1.524913E2,4.9971237E0,2.0546834E0,1.0105876E0,1.0358903E0,3.9612336E0],"tree_param":{"num_deleted":"0","num_feature":"13","num_nodes":"9","size_leaf_vector":"1"}},{"base_weights":[2.8574222E-1,-1.4916065E-1,3.3982903E-1,4.672505E-1,1.3586332E-1,2.6203328E-1,6.259976E-1,-1.5241738E-1,5.857767E-1,5.9026164E-1,-3.8381702E-1,1.9290262E-1,1.8525903E-1,1.8817084E-1,4.1191936E-1,5.037352E-2,6.3943124E-1,-1.5081118E-1,5.0672394E-1,-1.1751414E-1,1.8243434E-1,5.215113E-1,-1.4898853E-1,1.7308302E-1,-1.179936E-1,3.993183E-2,1.9436328E-1,-1.4895586E-3,2.1252373E-1,1.8526821E-1,1.3659585E-1,1.4438401E-1,-1.2610267E-1],"categories":[],"categories_nodes":[],"categories_segments":[],"categories_sizes":[],"default_left":[0,0,0,0,0,0,0,0,1,0,0,0,1,0,0,0,0,0,1,0,0,0,0,0,0,0,0,0,0,0,0,0,0],"id":42,"left_children":[1,-1,3,5,7,9,11,-1,13,15,17,-1,19,-1,21,23,25,-1,27,-1,-1,29,-1,-1,-1,-1,-1,-1,-1,-1,31,-1,-1],"loss_changes":[1.6144573E1,0E0,9.123116E0,6.9101524E0,4.0081345E1,2.066877E1,7.934494E-1,0E0,3.2767296E-1,1.6755466E0,3.7591376E0,0E0,1.6845027E0,0E0,2.1078305E0,1.7351024E0,1.6555214E-1,0E0,4.5723355E-1,0E0,0E0,5.4627085E-1,0E0,0E0,0E0,0E0,0E0,0E0,0E0,0E0,1.1027052E0,0E0,0E0],"parents":[2147483647,0,0,2,2,3,3,4,4,5,5,6,6,8,8,9,9,10,10,12,12,14,14,15,15,16,16,18,18,21,21,30,30],"right_children":[2,-1,4,6,8,10,12,-1,14,16,18,-1,20,-1,22,24,26,-1,28,-1,-1,30,-1,-1,-1,-1,-1,-1,-1,-1,32,-1,-1],"split_conditions":[4.16E2,-1.4916065E-1,1.942E3,4.9133E4,3.214E3,7.24E2,6.44E4,-1.5241738E-1,2.77E2,4.72E2,1.449E3,1.9290262E-1,2.99E2,1.8817084E-1,3.59E2,1.19E2,1.17E2,-1.5081118E-1,3.23E2,-1.1751414E-1,1.8243434E-1,1.16199E5,-1.4898853E-1,1.7308302E-1,-1.179936E-1,3.993183E-2,1.9436328E-1,-1.4895586E-3,2.1252373E-1,1.8526821E-1,1.141E0,1.4438401E-1,-1.2610267E-1],"split_indices":[0,0,0,1,0,0,1,0,6,0,0,0,7,0,11,5,12,0,6,0,0,1,0,0,0,0,0,0,0,0,2,0,0],"split_type":[0,0,0,0,0,0,0,0,0,0,0,0,0,0,0,0,0,0,0,0,0,0,0,0,0,0,0,0,0,0,0,0,0],"sum_hessian":[3.762551E2,2.378325E1,3.5247183E2,2.1614862E2,1.3632321E2,9.543173E1,1.2071689E2,5.6018974E1,8.030424E1,6.3331844E1,3.2099884E1,1.15788864E2,4.9280243E0,6.273597E1,1.756827E1,5.4553967E0,5.7876446E1,2.8703487E1,3.3963974E0,2.1153464E0,2.8126776E0,1.6057373E1,1.5108973E0,2.3573408E0,3.098056E0,1.2246133E0,5.6651833E1,1.236004E0,2.1603935E0,1.2366986E1,3.6903863E0,2.3634896E0,1.3268968E0],"tree_param":{"num_deleted":"0","num_feature":"13","num_nodes":"33","size_leaf_vector":"1"}},{"base_weights":[-1.8227832E-1,4.2348439E-1,-1.5402205E-1,-1.4204007E-1,5.774349E-1,6.0781896E-1,-9.889429E-2,-7.9528406E-2,6.267025E-1,6.374156E-1,2.9119107E-1,1.9379543E-1,8.037018E-2,1.46465E-1,-1.2940763E-2],"categories":[],"categories_nodes":[],"categories_segments":[],"categories_sizes":[],"default_left":[0,0,0,0,0,0,0,0,0,1,0,0,0,0,0],"id":43,"left_children":[1,3,-1,-1,5,7,-1,-1,9,11,13,-1,-1,-1,-1],"loss_changes":[4.2285225E1,1.0584545E1,0E0,0E0,1.9693165E0,1.1956196E0,0E0,0E0,3.519249E-2,1.2767792E-2,2.6753867E-1,0E0,0E0,0E0,0E0],"parents":[2147483647,0,0,1,1,4,4,5,5,8,8,9,9,10,10],"right_children":[2,4,-1,-1,6,8,-1,-1,10,12,14,-1,-1,-1,-1],"split_conditions":[1.6233E4,2.22E2,-1.5402205E-1,-1.4204007E-1,4.72E2,4.764E0,-9.889429E-2,-7.9528406E-2,1.5566E4,1.50255E2,1.331E0,1.9379543E-1,8.037018E-2,1.46465E-1,-1.2940763E-2],"split_indices":[1,0,0,0,0,3,0,0,1,4,2,0,0,0,0],"split_type":[0,0,0,0,0,0,0,0,0,0,0,0,0,0,0],"sum_hessian":[2.0872525E2,7.367187E1,1.3505338E2,1.0488427E1,6.318344E1,6.145484E1,1.7286006E0,1.0252016E0,6.0429638E1,5.768779E1,2.741847E0,5.5649082E1,2.038708E0,1.435551E0,1.3062961E0],"tree_param":{"num_deleted":"0","num_feature":"13","num_nodes":"15","size_leaf_vector":"1"}},{"base_weights":[1.7140849E-1,4.4336313E-1,-1.5345222E-1,-1.5034425E-1,5.9094393E-1,6.2022394E-1,-1.295444E-1,3.3732122E-1,6.398423E-1,-2.516423E-1,1.7512292E-1,1.9321181E-1,4.5894537E-2,3.7243847E-2,-1.1842506E-1],"categories":[],"categories_nodes":[],"categories_segments":[],"categories_sizes":[],"default_left":[0,0,0,0,0,0,0,0,1,0,0,0,0,0,0],"id":44,"left_children":[1,3,-1,-1,5,7,-1,9,11,13,-1,-1,-1,-1,-1],"loss_changes":[5.8325394E1,3.1556953E1,0E0,0E0,6.089943E0,8.354492E-1,0E0,2.2366304E0,2.6114655E-1,3.1499973E-1,0E0,0E0,0E0,0E0,0E0],"parents":[2147483647,0,0,1,1,4,4,5,5,7,7,8,8,9,9],"right_children":[2,4,-1,-1,6,8,-1,10,12,14,-1,-1,-1,-1,-1],"split_conditions":[1.464E3,2.2033E4,-1.5345222E-1,-1.5034425E-1,4.9133E4,2.4233E4,-1.295444E-1,2.61E2,3.36E2,1.26E2,1.7512292E-1,1.9321181E-1,4.5894537E-2,3.7243847E-2,-1.1842506E-1],"split_indices":[0,1,0,0,1,1,0,11,6,10,0,0,0,0,0],"split_type":[0,0,0,0,0,0,0,0,0,0,0,0,0,0,0],"sum_hessian":[3.1182544E2,2.2326598E2,8.855947E1,2.984751E1,1.9341847E2,1.8841794E2,5.000528E0,1.3398719E1,1.7501923E2,3.9461024E0,9.452617E0,1.7320326E2,1.8159604E0,1.1248493E0,2.821253E0],"tree_param":{"num_deleted":"0","num_feature":"13","num_nodes":"15","size_leaf_vector":"1"}},{"base_weights":[-2.8911093E-1,4.5436922E-1,-1.5411708E-1,-1.3283183E-1,6.0106033E-1,2.4663478E-1,1.9174393E-1,-1.09664194E-1,1.8138568E-1],"categories":[],"categories_nodes":[],"categories_segments":[],"categories_sizes":[],"default_left":[0,0,0,0,0,0,0,0,0],"id":45,"left_children":[1,3,-1,-1,5,7,-1,-1,-1],"loss_changes":[3.203769E1,6.151161E0,0E0,0E0,3.6689377E-1,1.4041729E0,0E0,0E0,0E0],"parents":[2147483647,0,0,1,1,4,4,5,5],"right_children":[2,4,-1,-1,6,8,-1,-1,-1],"split_conditions":[9.2E3,3.2E3,-1.5411708E-1,-1.3283183E-1,1.29E2,5.32E2,1.9174393E-1,-1.09664194E-1,1.8138568E-1],"split_indices":[1,1,0,0,6,5,0,0,0],"split_type":[0,0,0,0,0,0,0,0,0],"sum_hessian":[1.894504E2,4.3718117E1,1.4573227E2,5.860112E0,3.7858006E1,4.3988056E0,3.34592E1,1.6153309E0,2.7834747E0],"tree_param":{"num_deleted":"0","num_feature":"13","num_nodes":"9","size_leaf_vector":"1"}},{"base_weights":[1.3629013E-1,-1.534267E-1,4.0105397E-1,5.9834844E-1,-1.5119809E-1,6.3018376E-1,-1.2974885E-1,3.677736E-1,6.399353E-1,1.8792512E-1,-1.0537917E-1,1.9418706E-1,2.9785103E-1,1.5840997E-1,-5.897343E-2],"categories":[],"categories_nodes":[],"categories_segments":[],"categories_sizes":[],"default_left":[0,0,0,0,0,0,0,1,0,0,0,0,1,0,0],"id":46,"left_children":[1,-1,3,5,-1,7,-1,9,11,-1,-1,-1,13,-1,-1],"loss_changes":[5.141249E1,0E0,3.8249268E1,6.013626E0,0E0,1.9993591E-1,0E0,1.7908216E0,2.1646118E-1,0E0,0E0,0E0,7.0425296E-1,0E0,0E0],"parents":[2147483647,0,0,2,2,3,3,5,5,7,7,8,8,12,12],"right_children":[2,-1,4,6,-1,8,-1,10,12,-1,-1,-1,14,-1,-1],"split_conditions":[1.92E3,-1.534267E-1,9.0299E4,2.607E3,-1.5119809E-1,1.942E3,-1.2974885E-1,2.99E2,2.594E3,1.8792512E-1,-1.0537917E-1,1.9418706E-1,1.2627E2,1.5840997E-1,-5.897343E-2],"split_indices":[0,0,1,0,0,0,0,7,0,0,0,0,4,0,0],"split_type":[0,0,0,0,0,0,0,0,0,0,0,0,0,0,0],"sum_hessian":[2.976013E2,8.608157E1,2.115197E2,1.7394066E2,3.7579052E1,1.6910684E2,4.833809E0,7.4462395E0,1.616606E2,5.571087E0,1.8751523E0,1.5738461E2,4.275984E0,2.8712869E0,1.4046971E0],"tree_param":{"num_deleted":"0","num_feature":"13","num_nodes":"15","size_leaf_vector":"1"}},{"base_weights":[1.15095764E-1,-1.5365475E-1,4.429322E-1,5.1722264E-1,-1.448531E-1,1.7473322E-1,6.405421E-1,-4.1984677E-1,1.87758E-1,1.9515434E-1,-8.944664E-2,1.0507182E-1,-1.5036985E-1],"categories":[],"categories_nodes":[],"categories_segments":[],"categories_sizes":[],"default_left":[0,0,0,0,0,0,0,0,0,0,0,0,0],"id":47,"left_children":[1,-1,3,5,-1,7,9,11,-1,-1,-1,-1,-1],"loss_changes":[5.989546E1,0E0,1.339267E1,7.3799896E0,0E0,1.3228026E1,1.4113312E0,1.5199864E0,0E0,0E0,0E0,0E0,0E0],"parents":[2147483647,0,0,2,2,3,3,5,5,6,6,7,7],"right_children":[2,-1,4,6,-1,8,10,12,-1,-1,-1,-1,-1],"split_conditions":[2.196E3,-1.5365475E-1,3.231E3,2.607E3,-1.448531E-1,9.0299E4,1.07699E5,1.19E2,1.87758E-1,1.9515434E-1,-8.944664E-2,1.0507182E-1,-1.5036985E-1],"split_indices":[0,0,0,0,0,1,1,5,0,0,0,0,0],"split_type":[0,0,0,0,0,0,0,0,0,0,0,0,0],"sum_hessian":[2.8915387E2,9.905703E1,1.9009683E2,1.7638391E2,1.3712914E1,4.733619E1,1.2904773E2,2.0451145E1,2.6885042E1,1.2799496E2,1.0527658E0,1.6390253E0,1.881212E1],"tree_param":{"num_deleted":"0","num_feature":"13","num_nodes":"13","size_leaf_vector":"1"}},{"base_weights":[-3.3235785E-1,5.5183625E-1,-5.0060666E-1,1.7967017E-1,-3.73457E-2,-1.5260105E-1,-1.6843131E-1,6.9637865E-2,-1.08200386E-1],"categories":[],"categories_nodes":[],"categories_segments":[],"categories_sizes":[],"default_left":[0,1,0,0,0,0,0,0,0],"id":48,"left_children":[1,3,5,-1,-1,-1,7,-1,-1],"loss_changes":[2.1332956E1,8.099561E-1,2.3424721E-1,0E0,0E0,0E0,4.168089E-1,0E0,0E0],"parents":[2147483647,0,0,1,1,2,2,6,6],"right_children":[2,4,6,-1,-1,-1,8,-1,-1],"split_conditions":[1.11E2,5.29E2,1.15266E5,1.7967017E-1,-3.73457E-2,-1.5260105E-1,2.67E2,6.9637865E-2,-1.08200386E-1],"split_indices":[0,5,1,0,0,0,12,0,0],"split_type":[0,0,0,0,0,0,0,0,0],"sum_hessian":[1.405438E2,2.2103561E1,1.1844023E2,2.0772505E1,1.331056E0,1.1511451E2,3.325721E0,1.0112041E0,2.314517E0],"tree_param":{"num_deleted":"0","num_feature":"13","num_nodes":"9","size_leaf_vector":"1"}},{"base_weights":[-4.8624843E-1,-5.008946E-1,1.0109864E-1,-1.5263726E-1,-2.2318295E-1,-1.01740085E-1,2.0378563E-1,6.9481365E-2,-1.1772982E-1],"categories":[],"categories_nodes":[],"categories_segments":[],"categories_sizes":[],"default_left":[0,0,1,0,0,0,0,0,0],"id":49,"left_children":[1,3,5,-1,7,-1,-1,-1,-1],"loss_changes":[1.1253262E0,1.5410423E-1,1.2158109E0,0E0,4.8775855E-1,0E0,0E0,0E0,0E0],"parents":[2147483647,0,0,1,1,2,2,4,4],"right_children":[2,4,6,-1,8,-1,-1,-1,-1],"split_conditions":[3.475E3,1.12733E5,3.29E2,-1.5263726E-1,1.44E2,-1.01740085E-1,2.0378563E-1,6.9481365E-2,-1.1772982E-1],"split_indices":[0,1,8,0,12,0,0,0,0],"split_type":[0,0,0,0,0,0,0,0,0],"sum_hessian":[1.2392901E2,1.2105749E2,2.8715181E0,1.1690151E2,4.1559772E0,1.8649759E0,1.0065421E0,1.0272518E0,3.128725E0],"tree_param":{"num_deleted":"0","num_feature":"13","num_nodes":"9","size_leaf_vector":"1"}},{"base_weights":[2.6923183E-1,-1.4619967E-1,3.193775E-1,4.3761176E-1,1.2830578E-1,2.495058E-1,5.816618E-1,-1.5037414E-1,5.313132E-1,5.471414E-1,-3.6357713E-1,1.7964254E-1,1.6617605E-1,1.7215565E-1,3.571792E-1,5.684063E-2,5.929535E-1,-1.4817265E-1,4.5848382E-1,-1.077595E-1,1.58752E-1,4.6412385E-1,-1.4392523E-1,1.5248111E-1,-1.1055354E-1,3.238137E-2,1.8056102E-1,1.9000794E-1,-9.4133505E-4,1.6977869E-1,1.0023221E-1,1.3250743E-1,-1.2034833E-1],"categories":[],"categories_nodes":[],"categories_segments":[],"categories_sizes":[],"default_left":[0,0,0,0,0,0,0,0,1,0,0,0,1,0,0,0,0,0,0,0,0,0,0,0,0,0,0,0,0,0,0,0,0],"id":50,"left_children":[1,-1,3,5,7,9,11,-1,13,15,17,-1,19,-1,21,23,25,-1,27,-1,-1,29,-1,-1,-1,-1,-1,-1,-1,-1,31,-1,-1],"loss_changes":[1.1745779E1,0E0,6.4300766E0,4.649555E0,2.847063E1,1.4521408E1,6.090431E-1,0E0,3.006916E-1,1.1621027E0,3.039147E0,0E0,1.2057815E0,0E0,1.6592612E0,1.2732159E0,1.451397E-1,0E0,3.3386606E-1,0E0,0E0,4.8933887E-1,0E0,0E0,0E0,0E0,0E0,0E0,0E0,0E0,9.369205E-1,0E0,0E0],"parents":[2147483647,0,0,2,2,3,3,4,4,5,5,6,6,8,8,9,9,10,10,12,12,14,14,15,15,16,16,18,18,21,21,30,30],"right_children":[2,-1,4,6,8,10,12,-1,14,16,18,-1,20,-1,22,24,26,-1,28,-1,-1,30,-1,-1,-1,-1,-1,-1,-1,-1,32,-1,-1],"split_conditions":[4.16E2,-1.4619967E-1,1.942E3,4.9133E4,3.214E3,7.24E2,6.44E4,-1.5037414E-1,2.77E2,4.72E2,1.449E3,1.7964254E-1,2.99E2,1.7215565E-1,3.59E2,1.19E2,1.24E2,-1.4817265E-1,1.204E0,-1.077595E-1,1.58752E-1,3.475E3,-1.4392523E-1,1.5248111E-1,-1.1055354E-1,3.238137E-2,1.8056102E-1,1.9000794E-1,-9.4133505E-4,1.6977869E-1,9.249E1,1.3250743E-1,-1.2034833E-1],"split_indices":[0,0,0,1,0,0,1,0,6,0,0,0,7,0,11,5,6,0,2,0,0,0,0,0,0,0,0,0,0,0,4,0,0],"split_type":[0,0,0,0,0,0,0,0,0,0,0,0,0,0,0,0,0,0,0,0,0,0,0,0,0,0,0,0,0,0,0,0,0],"sum_hessian":[3.044987E2,1.8385927E1,2.8611276E2,1.759472E2,1.1016556E2,7.748997E1,9.845724E1,4.2902386E1,6.7263176E1,5.2237568E1,2.5252401E1,9.413132E1,4.32592E0,5.2212738E1,1.5050436E1,4.6553E0,4.7582268E1,2.2141253E1,3.1111498E0,1.7718894E0,2.554031E0,1.3740137E1,1.3102989E0,2.16385E0,2.4914498E0,1.0955453E0,4.648672E1,1.9865525E0,1.1245973E0,1.0302594E1,3.4375434E0,2.1157475E0,1.321796E0],"tree_param":{"num_deleted":"0","num_feature":"13","num_nodes":"33","size_leaf_vector":"1"}},{"base_weights":[-1.7618352E-1,3.9233506E-1,-1.524357E-1,-1.3746575E-1,5.315192E-1,5.597057E-1,-9.014496E-2,-2.958013E-2,5.772018E-1,3.0734488E-1,1.7933862E-1,-4.9254406E-2,1.4352235E-1],"categories":[],"categories_nodes":[],"categories_segments":[],"categories_sizes":[],"default_left":[0,0,0,0,0,0,0,0,0,0,0,0,0],"id":51,"left_children":[1,3,-1,-1,5,7,-1,-1,9,11,-1,-1,-1],"loss_changes":[3.1315197E1,7.5059557E0,0E0,0E0,1.4153748E0,6.5340614E-1,0E0,0E0,9.743881E-2,5.339076E-1,0E0,0E0,0E0],"parents":[2147483647,0,0,1,1,4,4,5,5,8,8,9,9],"right_children":[2,4,-1,-1,6,8,-1,-1,10,12,-1,-1,-1],"split_conditions":[1.6233E4,2.22E2,-1.524357E-1,-1.3746575E-1,4.72E2,1.2265E1,-9.014496E-2,-2.958013E-2,3.627E1,2.4E2,1.7933862E-1,-4.9254406E-2,1.4352235E-1],"split_indices":[1,0,0,0,0,3,0,0,3,7,0,0,0],"split_type":[0,0,0,0,0,0,0,0,0,0,0,0,0],"sum_hessian":[1.6388582E2,6.0346348E1,1.0353947E2,8.163994E0,5.2182354E1,5.0789005E1,1.3933493E0,1.1948812E0,4.9594124E1,4.645402E0,4.4948723E1,1.2473565E0,3.3980455E0],"tree_param":{"num_deleted":"0","num_feature":"13","num_nodes":"13","size_leaf_vector":"1"}},{"base_weights":[1.6178548E-1,4.1392857E-1,-1.5169434E-1,-1.4770016E-1,5.4842144E-1,5.7526106E-1,-1.2282135E-1,3.0013925E-1,5.952437E-1,-2.201476E-1,1.556465E-1,1.802925E-1,4.037169E-2,3.439115E-2,-1.10459276E-1],"categories":[],"categories_nodes":[],"categories_segments":[],"categories_sizes":[],"default_left":[0,0,0,0,0,0,0,0,1,0,0,0,0,0,0],"id":52,"left_children":[1,3,-1,-1,5,7,-1,9,11,13,-1,-1,-1,-1,-1],"loss_changes":[4.225529E1,2.2439602E1,0E0,0E0,4.3193398E0,6.731682E-1,0E0,1.53744E0,2.9782486E-1,2.6048335E-1,0E0,0E0,0E0,0E0,0E0],"parents":[2147483647,0,0,1,1,4,4,5,5,7,7,8,8,9,9],"right_children":[2,4,-1,-1,6,8,-1,10,12,14,-1,-1,-1,-1,-1],"split_conditions":[1.464E3,2.2033E4,-1.5169434E-1,-1.4770016E-1,4.9133E4,2.4233E4,-1.2282135E-1,2.61E2,3.07E2,1.26E2,1.556465E-1,1.802925E-1,4.037169E-2,3.439115E-2,-1.10459276E-1],"split_indices":[0,1,0,0,1,1,0,11,10,10,0,0,0,0,0],"split_type":[0,0,0,0,0,0,0,0,0,0,0,0,0,0,0],"sum_hessian":[2.4884439E2,1.8088821E2,6.795618E1,2.3031675E1,1.5785655E2,1.5394229E2,3.9142585E0,1.1508812E1,1.4243347E2,3.4038086E0,8.105003E0,1.403824E2,2.051076E0,1.1128995E0,2.290909E0],"tree_param":{"num_deleted":"0","num_feature":"13","num_nodes":"15","size_leaf_vector":"1"}},{"base_weights":[-2.8072304E-1,4.2035037E-1,-1.5255386E-1,-1.2668017E-1,5.527177E-1,2.143257E-1,1.7753458E-1,-1.0128144E-1,1.5856464E-1],"categories":[],"categories_nodes":[],"categories_segments":[],"categories_sizes":[],"default_left":[0,0,0,0,0,0,0,0,0],"id":53,"left_children":[1,3,-1,-1,5,7,-1,-1,-1],"loss_changes":[2.3972517E1,4.363757E0,0E0,0E0,3.0195713E-1,1.0325595E0,0E0,0E0,0E0],"parents":[2147483647,0,0,1,1,4,4,5,5],"right_children":[2,4,-1,-1,6,8,-1,-1,-1],"split_conditions":[9.2E3,3.2E3,-1.5255386E-1,-1.2668017E-1,1.29E2,5.32E2,1.7753458E-1,-1.0128144E-1,1.5856464E-1],"split_indices":[1,1,0,0,6,5,0,0,0],"split_type":[0,0,0,0,0,0,0,0,0],"sum_hessian":[1.4777364E2,3.603197E1,1.1174167E2,4.594487E0,3.1437483E1,3.9248817E0,2.7512602E1,1.3968732E0,2.5280085E0],"tree_param":{"num_deleted":"0","num_feature":"13","num_nodes":"9","size_leaf_vector":"1"}},{"base_weights":[1.287855E-1,-1.5165883E-1,3.7530306E-1,5.5524457E-1,-1.489873E-1,5.84292E-1,-1.2178308E-1,5.9233785E-1,2.3966031E-1,3.2793987E-1,1.80868E-1,-5.87932E-2,1.4040533E-1,1.6728094E-1,-9.7180404E-2],"categories":[],"categories_nodes":[],"categories_segments":[],"categories_sizes":[],"default_left":[0,0,0,0,0,0,0,0,0,1,0,0,0,0,0],"id":54,"left_children":[1,-1,3,5,-1,7,-1,9,11,13,-1,-1,-1,-1,-1],"loss_changes":[3.742307E1,0E0,2.7268915E1,4.232147E0,0E0,2.4429321E-1,0E0,1.802826E-1,5.749445E-1,1.2873368E0,0E0,0E0,0E0,0E0,0E0],"parents":[2147483647,0,0,2,2,3,3,5,5,7,7,8,8,9,9],"right_children":[2,-1,4,6,-1,8,-1,10,12,14,-1,-1,-1,-1,-1],"split_conditions":[1.92E3,-1.5165883E-1,2.607E3,9.0299E4,-1.489873E-1,2.594E3,-1.2178308E-1,1.942E3,1.23E2,2.99E2,1.80868E-1,-5.87932E-2,1.4040533E-1,1.6728094E-1,-9.7180404E-2],"split_indices":[0,0,0,1,0,0,0,0,5,7,0,0,0,0,0],"split_type":[0,0,0,0,0,0,0,0,0,0,0,0,0,0,0],"sum_hessian":[2.371109E2,6.6065895E1,1.7104501E2,1.4208568E2,2.8959332E1,1.3829837E2,3.7873082E0,1.3444093E2,3.8574429E0,6.392278E0,1.2804865E2,1.3753955E0,2.4820473E0,4.8338656E0,1.5584129E0],"tree_param":{"num_deleted":"0","num_feature":"13","num_nodes":"15","size_leaf_vector":"1"}},{"base_weights":[1.0926952E-1,-1.5195061E-1,4.1399252E-1,4.8269543E-1,-1.4099227E-1,1.5425168E-1,5.916723E-1,-1.463313E-1,1.7388472E-1,5.965647E-1,4.025517E-2,1.813099E-1,2.601811E-1,-4.3181054E-2,1.360326E-1],"categories":[],"categories_nodes":[],"categories_segments":[],"categories_sizes":[],"default_left":[0,0,0,0,0,0,1,0,0,0,0,0,0,0,0],"id":55,"left_children":[1,-1,3,5,-1,7,9,-1,-1,11,-1,-1,13,-1,-1],"loss_changes":[4.359984E1,0E0,9.654816E0,5.082184E0,0E0,1.0486141E1,1.6207886E-1,0E0,0E0,1.2287903E-1,0E0,0E0,3.913696E-1,0E0,0E0],"parents":[2147483647,0,0,2,2,3,3,5,5,6,6,9,9,12,12],"right_children":[2,-1,4,6,-1,8,10,-1,-1,12,-1,-1,14,-1,-1],"split_conditions":[2.196E3,-1.5195061E-1,3.231E3,2.594E3,-1.4099227E-1,9.0299E4,3.03E2,-1.463313E-1,1.7388472E-1,1.07299E5,4.025517E-2,1.813099E-1,3.32E2,-4.3181054E-2,1.360326E-1],"split_indices":[0,0,0,0,0,1,12,0,0,1,0,0,6,0,0],"split_type":[0,0,0,0,0,0,0,0,0,0,0,0,0,0,0],"sum_hessian":[2.3024179E2,7.6000656E1,1.5424113E2,1.4353905E2,1.070208E1,3.6362396E1,1.0717666E2,1.4432302E1,2.1930092E1,1.05741844E2,1.4348096E0,1.0256641E2,3.1754405E0,1.1098691E0,2.0655715E0],"tree_param":{"num_deleted":"0","num_feature":"13","num_nodes":"15","size_leaf_vector":"1"}},{"base_weights":[-3.2362685E-1,5.1310337E-1,-4.937247E-1,1.68559E-1,-3.3513196E-2,-1.5124735E-1,-1.2873009E-1,-1.00759074E-1,6.941894E-2],"categories":[],"categories_nodes":[],"categories_segments":[],"categories_sizes":[],"default_left":[0,1,0,0,0,0,1,0,0],"id":56,"left_children":[1,3,5,-1,-1,-1,7,-1,-1],"loss_changes":[1.5861833E1,6.421671E-1,2.841015E-1,0E0,0E0,0E0,3.678754E-1,0E0,0E0],"parents":[2147483647,0,0,1,1,2,2,6,6],"right_children":[2,4,6,-1,-1,-1,8,-1,-1],"split_conditions":[1.11E2,5.29E2,3.442E3,1.68559E-1,-3.3513196E-2,-1.5124735E-1,3.04E2,-1.00759074E-1,6.941894E-2],"split_indices":[0,5,0,0,0,0,5,0,0],"split_type":[0,0,0,0,0,0,0,0,0],"sum_hessian":[1.0866722E2,1.8018028E1,9.064919E1,1.6807163E1,1.2108655E0,8.7759384E1,2.889813E0,1.8773777E0,1.0124353E0],"tree_param":{"num_deleted":"0","num_feature":"13","num_nodes":"9","size_leaf_vector":"1"}},{"base_weights":[-4.7587737E-1,-1.5128744E-1,-5.2742563E-2,2.7551723E-1,-1.1537758E-1,-9.048023E-2,1.9810176E-1],"categories":[],"categories_nodes":[],"categories_segments":[],"categories_sizes":[],"default_left":[0,0,0,0,0,0,0],"id":57,"left_children":[1,-1,3,5,-1,-1,-1],"loss_changes":[1.1313286E0,0E0,8.8778865E-1,1.1298634E0,0E0,0E0,0E0],"parents":[2147483647,0,0,2,2,3,3],"right_children":[2,-1,4,6,-1,-1,-1],"split_conditions":[1.12733E5,-1.5128744E-1,3.25E2,2.55E2,-1.1537758E-1,-9.048023E-2,1.9810176E-1],"split_indices":[1,0,9,9,0,0,0],"split_type":[0,0,0,0,0,0,0],"sum_hessian":[9.530949E1,8.913234E1,6.177149E0,3.1907074E0,2.9864414E0,1.3629496E0,1.827758E0],"tree_param":{"num_deleted":"0","num_feature":"13","num_nodes":"7","size_leaf_vector":"1"}},{"base_weights":[2.564262E-1,-1.4308332E-1,3.0376396E-1,4.1635627E-1,1.2157726E-1,2.4085408E-1,5.50234E-1,-1.4838286E-1,4.8688048E-1,5.1578087E-1,-3.424302E-1,1.703985E-1,1.494468E-1,1.6434376E-1,3.3675677E-1,6.184567E-2,5.595023E-1,-1.4538091E-1,4.2197713E-1,-9.854649E-2,1.4055605E-1,4.1680744E-1,-1.3956998E-1,1.3571134E-1,-1.0246805E-1,2.9070415E-2,1.7093135E-1,1.7280087E-1,5.273245E-4,-3.5661295E-2,4.589202E-1,-2.8551625E-2,1.5045609E-1],"categories":[],"categories_nodes":[],"categories_segments":[],"categories_sizes":[],"default_left":[0,0,0,0,0,0,0,0,0,0,0,0,1,0,1,0,0,0,0,0,0,0,0,0,0,0,0,0,0,0,0,0,0],"id":58,"left_children":[1,-1,3,5,7,9,11,-1,13,15,17,-1,19,-1,21,23,25,-1,27,-1,-1,29,-1,-1,-1,-1,-1,-1,-1,-1,31,-1,-1],"loss_changes":[8.609968E0,0E0,4.6604233E0,3.1928387E0,2.0304321E1,1.0282959E1,4.810772E-1,0E0,3.3200455E-1,8.2341766E-1,2.4639294E0,0E0,8.753528E-1,0E0,1.407059E0,9.2999464E-1,1.3152504E-1,0E0,2.4461275E-1,0E0,0E0,4.5404553E-1,0E0,0E0,0E0,0E0,0E0,0E0,0E0,0E0,4.4012666E-1,0E0,0E0],"parents":[2147483647,0,0,2,2,3,3,4,4,5,5,6,6,8,8,9,9,10,10,12,12,14,14,15,15,16,16,18,18,21,21,30,30],"right_children":[2,-1,4,6,8,10,12,-1,14,16,18,-1,20,-1,22,24,26,-1,28,-1,-1,30,-1,-1,-1,-1,-1,-1,-1,-1,32,-1,-1],"split_conditions":[4.16E2,-1.4308332E-1,1.942E3,4.9133E4,3.214E3,7.24E2,6.44E4,-1.4838286E-1,2.77E2,4.72E2,1.449E3,1.703985E-1,2.99E2,1.6434376E-1,3.64E2,1.19E2,1.21E2,-1.4538091E-1,1.204E0,-9.854649E-2,1.4055605E-1,3.231E3,-1.3956998E-1,1.3571134E-1,-1.0246805E-1,2.9070415E-2,1.7093135E-1,1.7280087E-1,5.273245E-4,-3.5661295E-2,2.1027E1,-2.8551625E-2,1.5045609E-1],"split_indices":[0,0,0,1,0,0,1,0,6,0,0,0,7,0,11,5,8,0,2,0,0,0,0,0,0,0,0,0,0,0,3,0,0],"split_type":[0,0,0,0,0,0,0,0,0,0,0,0,0,0,0,0,0,0,0,0,0,0,0,0,0,0,0,0,0,0,0,0,0],"sum_hessian":[2.428374E2,1.4174016E1,2.2866338E2,1.4052988E2,8.813351E1,6.2022636E1,7.850724E1,3.2670887E1,5.546262E1,4.223242E1,1.9790215E1,7.4776306E1,3.7309291E0,3.7566216E1,1.7896402E1,3.922442E0,3.830998E1,1.6995287E1,2.7949283E0,1.4818225E0,2.2491066E0,1.6708887E1,1.1875151E0,1.9313645E0,1.9910774E0,1.0585774E0,3.7251404E1,1.7739804E0,1.0209479E0,1.0849928E0,1.5623895E1,1.027341E0,1.4596554E1],"tree_param":{"num_deleted":"0","num_feature":"13","num_nodes":"33","size_leaf_vector":"1"}},{"base_weights":[-1.7141928E-1,3.6700076E-1,-1.510457E-1,-1.3245384E-1,4.957171E-1,5.226268E-1,-8.145269E-2,5.4923445E-1,4.4586413E-2,2.4167238E-1,1.7100964E-1,-8.516277E-2,1.0098808E-1,-4.3733995E-2,1.218588E-1],"categories":[],"categories_nodes":[],"categories_segments":[],"categories_sizes":[],"default_left":[0,0,0,0,0,1,0,0,0,0,0,0,0,0,0],"id":59,"left_children":[1,3,-1,-1,5,7,-1,9,11,13,-1,-1,-1,-1,-1],"loss_changes":[2.3176054E1,5.3841186E0,0E0,0E0,1.0356073E0,5.118017E-1,0E0,1.1715126E-1,4.1320258E-1,3.3077586E-1,0E0,0E0,0E0,0E0,0E0],"parents":[2147483647,0,0,1,1,4,4,5,5,7,7,8,8,9,9],"right_children":[2,4,-1,-1,6,8,-1,10,12,14,-1,-1,-1,-1,-1],"split_conditions":[1.6233E4,2.22E2,-1.510457E-1,-1.3245384E-1,4.72E2,1.50255E2,-8.145269E-2,3.627E1,2.41E2,2.21E2,1.7100964E-1,-8.516277E-2,1.0098808E-1,-4.3733995E-2,1.218588E-1],"split_indices":[1,0,0,0,0,4,0,3,0,5,0,0,0,0,0],"split_type":[0,0,0,0,0,0,0,0,0,0,0,0,0,0,0],"sum_hessian":[1.2759289E2,4.8633007E1,7.8959885E1,6.3453655E0,4.228764E1,4.116271E1,1.1249322E0,3.8851322E1,2.3113854E0,3.2601051E0,3.5591217E1,1.1010149E0,1.2103705E0,1.0056739E0,2.2544312E0],"tree_param":{"num_deleted":"0","num_feature":"13","num_nodes":"15","size_leaf_vector":"1"}},{"base_weights":[1.5394111E-1,3.9167354E-1,-1.5008181E-1,-1.4495893E-1,5.1730275E-1,5.4265684E-1,-1.15506686E-1,2.6956862E-1,5.63606E-1,-1.4982061E-1,1.473805E-1,1.7107062E-1,1.3745609E-2,-1.1442467E-1,9.436806E-2],"categories":[],"categories_nodes":[],"categories_segments":[],"categories_sizes":[],"default_left":[0,0,0,0,0,0,0,1,1,0,0,0,0,0,0],"id":60,"left_children":[1,3,-1,-1,5,7,-1,9,11,13,-1,-1,-1,-1,-1],"loss_changes":[3.0799673E1,1.6174456E1,0E0,0E0,3.1184654E0,5.581398E-1,0E0,1.0740228E0,3.6641312E-1,6.0256815E-1,0E0,0E0,0E0,0E0,0E0],"parents":[2147483647,0,0,1,1,4,4,5,5,7,7,8,8,9,9],"right_children":[2,4,-1,-1,6,8,-1,10,12,14,-1,-1,-1,-1,-1],"split_conditions":[1.464E3,2.2033E4,-1.5008181E-1,-1.4495893E-1,4.9133E4,2.4233E4,-1.15506686E-1,2.61E2,3.36E2,2.16E2,1.473805E-1,1.7107062E-1,1.3745609E-2,-1.1442467E-1,9.436806E-2],"split_indices":[0,1,0,0,1,1,0,11,6,6,0,0,0,0,0],"split_type":[0,0,0,0,0,0,0,0,0,0,0,0,0,0,0],"sum_hessian":[1.9577333E2,1.4388777E2,5.188556E1,1.7710096E1,1.2617767E2,1.2311685E2,3.0608163E0,9.759705E0,1.1335715E2,3.4871957E0,6.272509E0,1.1182415E2,1.5330031E0,2.4459934E0,1.0412023E0],"tree_param":{"num_deleted":"0","num_feature":"13","num_nodes":"15","size_leaf_vector":"1"}},{"base_weights":[-2.731608E-1,3.9425397E-1,-1.511936E-1,-1.19949624E-1,5.165103E-1,1.86868E-1,1.6733885E-1,-9.385227E-2,1.415539E-1],"categories":[],"categories_nodes":[],"categories_segments":[],"categories_sizes":[],"default_left":[0,0,0,0,0,0,0,0,0],"id":61,"left_children":[1,3,-1,-1,5,7,-1,-1,-1],"loss_changes":[1.7985115E1,3.1413221E0,0E0,0E0,2.582326E-1,7.8390884E-1,0E0,0E0,0E0],"parents":[2147483647,0,0,1,1,4,4,5,5],"right_children":[2,4,-1,-1,6,8,-1,-1,-1],"split_conditions":[9.2E3,3.2E3,-1.511936E-1,-1.19949624E-1,1.29E2,5.32E2,1.6733885E-1,-9.385227E-2,1.415539E-1],"split_indices":[1,1,0,0,6,5,0,0,0],"split_type":[0,0,0,0,0,0,0,0,0],"sum_hessian":[1.144578E2,2.9230148E1,8.522765E1,3.5969033E0,2.5633244E1,3.4681768E0,2.2165068E1,1.2240452E0,2.2441316E0],"tree_param":{"num_deleted":"0","num_feature":"13","num_nodes":"9","size_leaf_vector":"1"}},{"base_weights":[1.22816704E-1,-1.5002596E-1,3.5605446E-1,5.244657E-1,-1.4645083E-1,5.5176324E-1,-1.1490478E-1,5.6089675E-1,2.1143304E-1,2.9566333E-1,1.7157722E-1,1.31115E-1,-5.8760144E-2,1.514776E-1,-8.912639E-2],"categories":[],"categories_nodes":[],"categories_segments":[],"categories_sizes":[],"default_left":[0,0,0,0,0,0,0,0,1,1,0,0,0,0,0],"id":62,"left_children":[1,-1,3,5,-1,7,-1,9,11,13,-1,-1,-1,-1,-1],"loss_changes":[2.7386816E1,0E0,1.9711908E1,3.0493813E0,0E0,2.28405E-1,0E0,1.4709854E-1,5.012015E-1,9.420666E-1,0E0,0E0,0E0,0E0,0E0],"parents":[2147483647,0,0,2,2,3,3,5,5,7,7,8,8,9,9],"right_children":[2,-1,4,6,-1,8,-1,10,12,14,-1,-1,-1,-1,-1],"split_conditions":[1.92E3,-1.5002596E-1,9.0299E4,2.607E3,-1.4645083E-1,2.594E3,-1.1490478E-1,1.942E3,1.2627E2,2.99E2,1.7157722E-1,1.31115E-1,-5.8760144E-2,1.514776E-1,-8.912639E-2],"split_indices":[0,0,1,0,0,0,0,0,4,7,0,0,0,0,0],"split_type":[0,0,0,0,0,0,0,0,0,0,0,0,0,0,0],"sum_hessian":[1.8627908E2,5.043616E1,1.3584293E2,1.1356667E2,2.2276249E1,1.1063082E2,2.9358528E0,1.0710823E2,3.5225868E0,5.3855E0,1.0172273E2,2.2198806E0,1.3027062E0,4.0898175E0,1.2956823E0],"tree_param":{"num_deleted":"0","num_feature":"13","num_nodes":"15","size_leaf_vector":"1"}},{"base_weights":[1.0482738E-1,-1.5040186E-1,3.9220798E-1,4.5730883E-1,-1.3682446E-1,1.4681986E-1,5.6085163E-1,-1.423332E-1,5.3131056E-1,2.8736692E-2,1.7085688E-1,1.7536135E-1,-5.0977827E-3],"categories":[],"categories_nodes":[],"categories_segments":[],"categories_sizes":[],"default_left":[0,0,0,0,0,0,0,0,0,0,0,0,0],"id":63,"left_children":[1,-1,3,5,-1,7,9,-1,11,-1,-1,-1,-1],"loss_changes":[3.1913189E1,0E0,7.0604553E0,3.638239E0,0E0,7.489075E0,2.9400253E-1,0E0,5.6988E-1,0E0,0E0,0E0,0E0],"parents":[2147483647,0,0,2,2,3,3,5,5,6,6,8,8],"right_children":[2,-1,4,6,-1,8,10,-1,12,-1,-1,-1,-1],"split_conditions":[2.196E3,-1.5040186E-1,3.231E3,9.0299E4,-1.3682446E-1,2.594E3,7.5E1,-1.423332E-1,2.54E2,2.8736692E-2,1.7085688E-1,1.7536135E-1,-5.0977827E-3],"split_indices":[0,0,0,1,0,0,5,0,6,0,0,0,0],"split_type":[0,0,0,0,0,0,0,0,0,0,0,0,0],"sum_hessian":[1.8106917E2,5.7995583E1,1.2307358E2,1.14729706E2,8.343875E0,2.9296783E1,8.543292E1,1.1110453E1,1.818633E1,1.7842778E0,8.364864E1,1.6516851E1,1.6694797E0],"tree_param":{"num_deleted":"0","num_feature":"13","num_nodes":"13","size_leaf_vector":"1"}},{"base_weights":[-3.1488264E-1,4.811632E-1,-4.8647216E-1,1.6020373E-1,-2.8773138E-2,-1.5000178E-1,-8.342819E-2,-9.124032E-2,6.864969E-2],"categories":[],"categories_nodes":[],"categories_segments":[],"categories_sizes":[],"default_left":[0,0,0,0,0,0,1,0,0],"id":64,"left_children":[1,3,5,-1,-1,-1,7,-1,-1],"loss_changes":[1.1802353E1,5.2457404E-1,3.4104538E-1,0E0,0E0,0E0,3.0942732E-1,0E0,0E0],"parents":[2147483647,0,0,1,1,2,2,6,6],"right_children":[2,4,6,-1,-1,-1,8,-1,-1],"split_conditions":[1.11E2,5.32E2,1.15266E5,1.6020373E-1,-2.8773138E-2,-1.5000178E-1,9.4764E1,-9.124032E-2,6.864969E-2],"split_indices":[0,5,1,0,0,0,3,0,0],"split_type":[0,0,0,0,0,0,0,0,0],"sum_hessian":[8.369151E1,1.452098E1,6.917053E1,1.3371061E1,1.149919E0,6.669057E1,2.4799647E0,1.4682364E0,1.0117282E0],"tree_param":{"num_deleted":"0","num_feature":"13","num_nodes":"9","size_leaf_vector":"1"}},{"base_weights":[-4.6405703E-1,-1.5004346E-1,-8.803105E-3,2.8429073E-1,-1.0820011E-1,1.4664122E-1,6.0736113E-3],"categories":[],"categories_nodes":[],"categories_segments":[],"categories_sizes":[],"default_left":[0,0,0,0,0,0,0],"id":65,"left_children":[1,-1,3,5,-1,-1,-1],"loss_changes":[1.2139835E0,0E0,7.692425E-1,2.1075922E-1,0E0,0E0,0E0],"parents":[2147483647,0,0,2,2,3,3],"right_children":[2,-1,4,6,-1,-1,-1],"split_conditions":[1.12733E5,-1.5004346E-1,1.157E0,2.21E2,-1.0820011E-1,1.4664122E-1,6.0736113E-3],"split_indices":[1,0,2,5,0,0,0],"split_type":[0,0,0,0,0,0,0],"sum_hessian":[7.3160065E1,6.7695274E1,5.4647894E0,3.0861485E0,2.378641E0,1.2594464E0,1.826702E0],"tree_param":{"num_deleted":"0","num_feature":"13","num_nodes":"7","size_leaf_vector":"1"}},{"base_weights":[2.461229E-1,-1.3963526E-1,2.9135895E-1,4.000864E-1,1.1612288E-1,2.3390004E-1,5.268424E-1,-1.4630927E-1,4.50704E-1,4.9098215E-1,-3.201552E-1,1.6368027E-1,1.342336E-1,1.5493502E-1,2.9645318E-1,6.6062085E-2,5.3340876E-1,-1.4230621E-1,3.9173844E-1,-8.987649E-2,1.2574509E-1,3.7758026E-1,-1.3426194E-1,1.2202228E-1,-9.408365E-2,4.292176E-2,1.6321777E-1,1.34264305E-2,1.6041517E-1,-2.9414628E-2,4.184511E-1,1.5405138E-1,3.6285542E-2],"categories":[],"categories_nodes":[],"categories_segments":[],"categories_sizes":[],"default_left":[0,0,0,0,0,0,0,0,0,0,0,0,1,0,1,0,0,0,1,0,0,0,0,0,0,0,0,0,0,0,0,0,0],"id":66,"left_children":[1,-1,3,5,7,9,11,-1,13,15,17,-1,19,-1,21,23,25,-1,27,-1,-1,29,-1,-1,-1,-1,-1,-1,-1,-1,31,-1,-1],"loss_changes":[6.3403587E0,0E0,3.4184065E0,2.2321644E0,1.4571712E1,7.304806E0,3.8804626E-1,0E0,3.1573868E-1,5.898104E-1,1.9981304E0,0E0,6.4253557E-1,0E0,1.1445802E0,6.8230987E-1,5.2624702E-2,0E0,1.4906603E-1,0E0,0E0,3.3488774E-1,0E0,0E0,0E0,0E0,0E0,0E0,0E0,0E0,3.3690763E-1,0E0,0E0],"parents":[2147483647,0,0,2,2,3,3,4,4,5,5,6,6,8,8,9,9,10,10,12,12,14,14,15,15,16,16,18,18,21,21,30,30],"right_children":[2,-1,4,6,8,10,12,-1,14,16,18,-1,20,-1,22,24,26,-1,28,-1,-1,30,-1,-1,-1,-1,-1,-1,-1,-1,32,-1,-1],"split_conditions":[4.16E2,-1.3963526E-1,1.942E3,4.9133E4,3.214E3,7.24E2,6.44E4,-1.4630927E-1,2.77E2,4.72E2,1.449E3,1.6368027E-1,2.99E2,1.5493502E-1,3.64E2,1.19E2,1.27E2,-1.4230621E-1,3.27E2,-8.987649E-2,1.2574509E-1,3.231E3,-1.3426194E-1,1.2202228E-1,-9.408365E-2,4.292176E-2,1.6321777E-1,1.34264305E-2,1.6041517E-1,-2.9414628E-2,1.16199E5,1.5405138E-1,3.6285542E-2],"split_indices":[0,0,0,1,0,0,1,0,6,0,0,0,7,0,11,5,6,0,6,0,0,0,0,0,0,0,0,0,0,0,1,0,0],"split_type":[0,0,0,0,0,0,0,0,0,0,0,0,0,0,0,0,0,0,0,0,0,0,0,0,0,0,0,0,0,0,0,0,0],"sum_hessian":[1.9176103E2,1.09067E1,1.8085434E2,1.1081477E2,7.003956E1,4.9180653E1,6.163412E1,2.4808994E1,4.5230568E1,3.367108E1,1.5509571E1,5.845168E1,3.1824443E0,3.0067036E1,1.5163531E1,3.2888598E0,3.038222E1,1.3022518E1,2.4870536E0,1.2411464E0,1.941298E0,1.4116702E1,1.0468299E0,1.695875E0,1.5929848E0,1.1903355E0,2.9191885E1,1.1089202E0,1.3781333E0,1.0063576E0,1.3110344E1,9.385523E0,3.7248213E0],"tree_param":{"num_deleted":"0","num_feature":"13","num_nodes":"33","size_leaf_vector":"1"}},{"base_weights":[-1.6734473E-1,3.4720543E-1,-1.4974436E-1,-1.2687103E-1,4.6885037E-1,1.4769973E-1,5.106305E-1,-9.809437E-2,1.2730108E-1,1.5889978E-1,2.4969342E-1,-2.3304092E-2,1.1796594E-1],"categories":[],"categories_nodes":[],"categories_segments":[],"categories_sizes":[],"default_left":[0,0,0,0,0,0,0,0,0,0,1,0,0],"id":67,"left_children":[1,3,-1,-1,5,7,9,-1,-1,-1,11,-1,-1],"loss_changes":[1.7181948E1,3.9123082E0,0E0,0E0,3.9033604E-1,8.4823817E-1,1.829338E-2,0E0,0E0,0E0,2.1626449E-1,0E0,0E0],"parents":[2147483647,0,0,1,1,4,4,5,5,6,6,10,10],"right_children":[2,4,-1,-1,6,8,10,-1,-1,-1,12,-1,-1],"split_conditions":[1.6233E4,2.22E2,-1.4974436E-1,-1.2687103E-1,4.2397E1,2.19E2,4.61E2,-9.809437E-2,1.2730108E-1,1.5889978E-1,3.09E2,-2.3304092E-2,1.1796594E-1],"split_indices":[1,0,0,0,3,7,0,0,0,0,10,0,0],"split_type":[0,0,0,0,0,0,0,0,0,0,0,0,0],"sum_hessian":[9.8623436E1,3.864599E1,5.9977448E1,4.9339075E0,3.3712082E1,4.4029703E0,2.930911E1,1.5541772E0,2.8487933E0,2.6356525E1,2.9525838E0,1.0397527E0,1.9128312E0],"tree_param":{"num_deleted":"0","num_feature":"13","num_nodes":"13","size_leaf_vector":"1"}},{"base_weights":[1.4748073E-1,3.744268E-1,-1.484927E-1,-1.4195395E-1,4.9388644E-1,5.184171E-1,-1.0762074E-1,2.474459E-1,5.4020774E-1,1.4146583E-1,-1.0350386E-1,1.6468938E-1,1.0162219E-2,9.019502E-2,-1.068864E-1],"categories":[],"categories_nodes":[],"categories_segments":[],"categories_sizes":[],"default_left":[0,0,0,0,0,0,0,0,1,0,0,0,0,0,0],"id":68,"left_children":[1,3,-1,-1,5,7,-1,9,11,-1,13,-1,-1,-1,-1],"loss_changes":[2.2550497E1,1.1768761E1,0E0,0E0,2.284584E0,4.4463348E-1,0E0,7.672824E-1,3.795929E-1,0E0,5.5460125E-1,0E0,0E0,0E0,0E0],"parents":[2147483647,0,0,1,1,4,4,5,5,7,7,8,8,10,10],"right_children":[2,4,-1,-1,6,8,-1,10,12,-1,14,-1,-1,-1,-1],"split_conditions":[1.464E3,2.2033E4,-1.484927E-1,-1.4195395E-1,4.9133E4,2.4233E4,-1.0762074E-1,2.75E2,3.07E2,1.4146583E-1,3.214E0,1.6468938E-1,1.0162219E-2,9.019502E-2,-1.068864E-1],"split_indices":[0,1,0,0,1,1,0,0,10,0,4,0,0,0,0],"split_type":[0,0,0,0,0,0,0,0,0,0,0,0,0,0,0],"sum_hessian":[1.5239308E2,1.12921165E2,3.9471924E1,1.3583144E1,9.933802E1,9.694092E1,2.3971012E0,8.135064E0,8.8805855E1,4.755003E0,3.3800614E0,8.721334E1,1.5925102E0,1.2277565E0,2.152305E0],"tree_param":{"num_deleted":"0","num_feature":"13","num_nodes":"15","size_leaf_vector":"1"}},{"base_weights":[-2.6669988E-1,3.7199774E-1,-1.49932E-1,-1.1265732E-1,4.871327E-1,1.647988E-1,1.5925744E-1,-8.653399E-2,1.2767638E-1],"categories":[],"categories_nodes":[],"categories_segments":[],"categories_sizes":[],"default_left":[0,0,0,0,0,0,0,0,0],"id":69,"left_children":[1,3,-1,-1,5,7,-1,-1,-1],"loss_changes":[1.3457367E1,2.2836778E0,0E0,0E0,2.1675491E-1,5.9895134E-1,0E0,0E0,0E0],"parents":[2147483647,0,0,1,1,4,4,5,5],"right_children":[2,4,-1,-1,6,8,-1,-1,-1],"split_conditions":[9.2E3,3.2E3,-1.49932E-1,-1.1265732E-1,1.29E2,5.32E2,1.5925744E-1,-8.653399E-2,1.2767638E-1],"split_indices":[1,1,0,0,6,5,0,0,0],"split_type":[0,0,0,0,0,0,0,0,0],"sum_hessian":[8.815185E1,2.3408588E1,6.474326E1,2.8223927E0,2.0586195E1,3.0286458E0,1.755755E1,1.0674279E0,1.9612179E0],"tree_param":{"num_deleted":"0","num_feature":"13","num_nodes":"9","size_leaf_vector":"1"}},{"base_weights":[1.1768822E-1,-1.4840911E-1,3.4074217E-1,5.013928E-1,-1.4401369E-1,5.2727705E-1,-1.0560216E-1,5.37864E-1,1.8481116E-1,2.6802853E-1,1.64873E-1,-5.249437E-2,1.1964752E-1,1.3851604E-1,-8.133675E-2],"categories":[],"categories_nodes":[],"categories_segments":[],"categories_sizes":[],"default_left":[0,0,0,0,0,0,0,0,0,1,0,0,0,0,0],"id":70,"left_children":[1,-1,3,5,-1,7,-1,9,11,13,-1,-1,-1,-1,-1],"loss_changes":[2.009559E1,0E0,1.4419156E1,2.1828327E0,0E0,2.2021484E-1,0E0,1.2129593E-1,3.9064294E-1,6.982342E-1,0E0,0E0,0E0,0E0,0E0],"parents":[2147483647,0,0,2,2,3,3,5,5,7,7,8,8,9,9],"right_children":[2,-1,4,6,-1,8,-1,10,12,14,-1,-1,-1,-1,-1],"split_conditions":[1.92E3,-1.4840911E-1,2.607E3,9.0299E4,-1.4401369E-1,2.594E3,-1.0560216E-1,1.942E3,1.23E2,2.99E2,1.64873E-1,-5.249437E-2,1.1964752E-1,1.3851604E-1,-8.133675E-2],"split_indices":[0,0,0,1,0,0,0,0,5,7,0,0,0,0,0],"split_type":[0,0,0,0,0,0,0,0,0,0,0,0,0,0,0],"sum_hessian":[1.4488406E2,3.8357452E1,1.0652661E2,8.941482E1,1.7111792E1,8.7153534E1,2.261285E0,8.39866E1,3.1669312E0,4.487473E0,7.949913E1,1.2492019E0,1.9177293E0,3.4070845E0,1.0803887E0],"tree_param":{"num_deleted":"0","num_feature":"13","num_nodes":"15","size_leaf_vector":"1"}},{"base_weights":[1.00625835E-1,-1.4889489E-1,3.74246E-1,4.3724975E-1,-1.3390449E-1,1.4159626E-1,5.3634214E-1,-1.378946E-1,4.9519786E-1,1.6396512E-1,8.492176E-3,1.6596878E-1,-7.5598513E-3],"categories":[],"categories_nodes":[],"categories_segments":[],"categories_sizes":[],"default_left":[0,0,0,0,0,0,1,0,0,0,0,0,0],"id":71,"left_children":[1,-1,3,5,-1,7,9,-1,11,-1,-1,-1,-1],"loss_changes":[2.339157E1,0E0,5.2613173E0,2.6049805E0,0E0,5.4001827E0,3.3810997E-1,0E0,4.9113226E-1,0E0,0E0,0E0,0E0],"parents":[2147483647,0,0,2,2,3,3,5,5,6,6,8,8],"right_children":[2,-1,4,6,-1,8,10,-1,12,-1,-1,-1,-1],"split_conditions":[2.196E3,-1.4889489E-1,1.07699E5,9.0299E4,-1.3390449E-1,2.594E3,3.07E2,-1.378946E-1,2.54E2,1.6396512E-1,8.492176E-3,1.6596878E-1,-7.5598513E-3],"split_indices":[0,0,1,1,0,0,12,0,6,0,0,0,0],"split_type":[0,0,0,0,0,0,0,0,0,0,0,0,0],"sum_hessian":[1.4107468E2,4.408436E1,9.699032E1,9.05084E1,6.4819174E0,2.33299E1,6.71785E1,8.528537E0,1.4801364E1,6.5780914E1,1.3975875E0,1.32596445E1,1.5417199E0],"tree_param":{"num_deleted":"0","num_feature":"13","num_nodes":"13","size_leaf_vector":"1"}},{"base_weights":[-3.0573717E-1,4.5268592E-1,-4.7842973E-1,1.52636E-1,-2.6603226E-2,-1.4876358E-1,-5.2453715E-2,-8.452047E-2,6.884126E-2],"categories":[],"categories_nodes":[],"categories_segments":[],"categories_sizes":[],"default_left":[0,0,0,0,0,0,1,0,0],"id":72,"left_children":[1,3,5,-1,-1,-1,7,-1,-1],"loss_changes":[8.784443E0,4.2920446E-1,3.7365246E-1,0E0,0E0,0E0,2.7370566E-1,0E0,0E0],"parents":[2147483647,0,0,1,1,2,2,6,6],"right_children":[2,4,6,-1,-1,-1,8,-1,-1],"split_conditions":[1.11E2,5.32E2,3.442E3,1.52636E-1,-2.6603226E-2,-1.4876358E-1,3.27E2,-8.452047E-2,6.884126E-2],"split_indices":[0,5,0,0,0,0,11,0,0],"split_type":[0,0,0,0,0,0,0,0,0],"sum_hessian":[6.441653E1,1.1646525E1,5.277E1,1.0607463E1,1.0390626E0,5.0535843E1,2.2341547E0,1.2324839E0,1.0016707E0],"tree_param":{"num_deleted":"0","num_feature":"13","num_nodes":"9","size_leaf_vector":"1"}},{"base_weights":[-4.5030755E-1,-1.4881498E-1,2.993759E-2,3.0880722E-1,-1.0217454E-1,-7.92841E-2,1.8169712E-1],"categories":[],"categories_nodes":[],"categories_segments":[],"categories_sizes":[],"default_left":[0,0,0,0,0,0,0],"id":73,"left_children":[1,-1,3,5,-1,-1,-1],"loss_changes":[1.2720213E0,0E0,7.1686167E-1,8.2390654E-1,0E0,0E0,0E0],"parents":[2147483647,0,0,2,2,3,3],"right_children":[2,-1,4,6,-1,-1,-1],"split_conditions":[1.12733E5,-1.4881498E-1,3.25E2,2.55E2,-1.0217454E-1,-7.92841E-2,1.8169712E-1],"split_indices":[1,0,9,9,0,0,0],"split_type":[0,0,0,0,0,0,0],"sum_hessian":[5.6228516E1,5.130857E1,4.919943E0,2.902184E0,2.0177588E0,1.0277549E0,1.874429E0],"tree_param":{"num_deleted":"0","num_feature":"13","num_nodes":"7","size_leaf_vector":"1"}},{"base_weights":[2.3700808E-1,-1.3570625E-1,2.8052258E-1,3.8694394E-1,1.10765934E-1,2.247124E-1,5.0601345E-1,-1.4400354E-1,4.167299E-1,4.6965778E-1,-3.4421182E-1,1.5767527E-1,1.20067224E-1,4.7258708E-1,2.2371133E-1,6.2008336E-2,5.124241E-1,-1.3869631E-1,1.0492896E-1,-8.178665E-2,1.13139726E-1,3.0252168E-1,1.5746818E-1,3.3236453E-1,-1.076616E-1,1.0938492E-1,-8.6363144E-2,3.715443E-2,1.5728013E-1,-6.7666486E-2,1.4119416E-1,1.4122967E-1,-2.867141E-3,1.0226254E-1,-1.0897542E-1],"categories":[],"categories_nodes":[],"categories_segments":[],"categories_sizes":[],"default_left":[0,0,0,0,0,0,0,0,1,0,1,0,1,1,0,0,0,0,0,0,0,0,0,0,0,0,0,0,0,0,0,0,0,0,0],"id":74,"left_children":[1,-1,3,5,7,9,11,-1,13,15,17,-1,19,21,23,25,27,-1,-1,-1,-1,29,-1,31,-1,-1,-1,-1,-1,-1,-1,-1,33,-1,-1],"loss_changes":[4.679373E0,0E0,2.5472126E0,1.580822E0,1.0439261E1,5.586811E0,3.1299114E-1,0E0,3.0240154E-1,4.5003414E-1,1.1693532E0,0E0,4.7623086E-1,9.4371796E-2,7.772637E-1,5.0324976E-1,4.9541473E-2,0E0,0E0,0E0,0E0,9.1006315E-1,0E0,4.319116E-1,0E0,0E0,0E0,0E0,0E0,0E0,0E0,0E0,5.828817E-1,0E0,0E0],"parents":[2147483647,0,0,2,2,3,3,4,4,5,5,6,6,8,8,9,9,10,10,12,12,13,13,14,14,15,15,16,16,21,21,23,23,32,32],"right_children":[2,-1,4,6,8,10,12,-1,14,16,18,-1,20,22,24,26,28,-1,-1,-1,-1,30,-1,32,-1,-1,-1,-1,-1,-1,-1,-1,34,-1,-1],"split_conditions":[4.16E2,-1.3570625E-1,1.942E3,4.7666E4,3.214E3,7.24E2,6.44E4,-1.4400354E-1,2.77E2,4.72E2,3.27E2,1.5767527E-1,2.99E2,9.64E-1,3.52E2,1.19E2,1.27E2,-1.3869631E-1,1.0492896E-1,-8.178665E-2,1.13139726E-1,3.326E3,1.5746818E-1,3.475E3,-1.076616E-1,1.0938492E-1,-8.6363144E-2,3.715443E-2,1.5728013E-1,-6.7666486E-2,1.4119416E-1,1.4122967E-1,9.249E1,1.0226254E-1,-1.0897542E-1],"split_indices":[0,0,0,1,0,0,1,0,6,0,6,0,7,2,11,5,6,0,0,0,0,0,0,0,0,0,0,0,0,0,0,0,4,0,0],"split_type":[0,0,0,0,0,0,0,0,0,0,0,0,0,0,0,0,0,0,0,0,0,0,0,0,0,0,0,0,0,0,0,0,0,0,0],"sum_hessian":[1.5076309E2,8.393697E0,1.423694E2,8.672294E1,5.5646458E1,3.793033E1,4.879261E1,1.8792217E1,3.6854244E1,2.6636637E1,1.1293691E1,4.609347E1,2.6991398E0,2.7459425E1,9.394819E0,2.76173E0,2.3874907E1,9.936399E0,1.3572916E0,1.0439296E0,1.6552104E0,8.054716E0,1.9404709E1,8.280066E0,1.1147537E0,1.4583414E0,1.3033886E0,1.0450044E0,2.2829903E1,1.8626401E0,6.1920757E0,5.5743747E0,2.7056901E0,1.4125264E0,1.2931638E0],"tree_param":{"num_deleted":"0","num_feature":"13","num_nodes":"35","size_leaf_vector":"1"}},{"base_weights":[-1.6300473E-1,3.297824E-1,-1.4843835E-1,-1.206812E-1,4.4578388E-1,4.7248703E-1,4.7286563E-3,1.5046777E-1,4.9906662E-1,-3.0532416E-2,9.4044246E-2,1.5565895E-1,2.3457037E-1,8.880818E-3,9.740099E-2],"categories":[],"categories_nodes":[],"categories_segments":[],"categories_sizes":[],"default_left":[0,0,0,0,1,0,0,0,0,0,0,0,1,0,0],"id":75,"left_children":[1,3,-1,-1,5,7,-1,9,11,-1,-1,-1,13,-1,-1],"loss_changes":[1.276775E1,2.8644526E0,0E0,0E0,3.1142282E-1,1.4839315E-1,0E0,1.7263402E-1,2.3245811E-3,0E0,0E0,0E0,5.4556534E-2,0E0,0E0],"parents":[2147483647,0,0,1,1,4,4,5,5,7,7,8,8,12,12],"right_children":[2,4,-1,-1,6,8,-1,10,12,-1,-1,-1,14,-1,-1],"split_conditions":[1.6233E4,2.22E2,-1.4843835E-1,-1.206812E-1,1.45305E2,4.2397E1,4.7286563E-3,2.43E2,4.61E2,-3.0532416E-2,9.4044246E-2,1.5565895E-1,2.95E2,8.880818E-3,9.740099E-2],"split_indices":[1,0,0,0,4,3,0,7,0,0,0,0,6,0,0],"split_type":[0,0,0,0,0,0,0,0,0,0,0,0,0,0,0],"sum_hessian":[7.60914E1,3.0619768E1,4.547163E1,3.8507779E0,2.6768991E1,2.511092E1,1.6580706E0,2.4225116E0,2.2688408E1,1.0984544E0,1.3240572E0,2.0213783E1,2.4746258E0,1.161312E0,1.3133138E0],"tree_param":{"num_deleted":"0","num_feature":"13","num_nodes":"15","size_leaf_vector":"1"}},{"base_weights":[1.415632E-1,3.5987428E-1,-1.4681876E-1,-1.3858344E-1,4.7515708E-1,4.9931487E-1,-9.927742E-2,5.086304E-1,-8.984363E-3,2.3034017E-1,1.5972233E-1,1.312733E-1,-8.353483E-2,7.759786E-2,-9.8141454E-2],"categories":[],"categories_nodes":[],"categories_segments":[],"categories_sizes":[],"default_left":[0,0,0,0,0,1,0,0,0,0,0,0,0,0,0],"id":76,"left_children":[1,3,-1,-1,5,7,-1,9,-1,11,-1,-1,13,-1,-1],"loss_changes":[1.6551773E1,8.6420145E0,0E0,0E0,1.6930275E0,3.9276123E-1,0E0,3.756466E-1,0E0,5.367663E-1,0E0,0E0,4.0954566E-1,0E0,0E0],"parents":[2147483647,0,0,1,1,4,4,5,5,7,7,9,9,12,12],"right_children":[2,4,-1,-1,6,8,-1,10,-1,12,-1,-1,14,-1,-1],"split_conditions":[1.464E3,2.2033E4,-1.4681876E-1,-1.3858344E-1,4.9133E4,3.36E2,-9.927742E-2,2.4233E4,-8.984363E-3,2.75E2,1.5972233E-1,1.312733E-1,3.214E0,7.759786E-2,-9.8141454E-2],"split_indices":[0,1,0,0,1,6,0,1,0,0,0,0,4,0,0],"split_type":[0,0,0,0,0,0,0,0,0,0,0,0,0,0,0],"sum_hessian":[1.17883514E2,8.7899895E1,2.9983618E1,1.0443564E1,7.745633E1,7.557205E1,1.8842841E0,7.430322E1,1.2688233E0,6.6900673E0,6.761316E1,3.7921605E0,2.897907E0,1.1793895E0,1.7185175E0],"tree_param":{"num_deleted":"0","num_feature":"13","num_nodes":"15","size_leaf_vector":"1"}},{"base_weights":[-2.6010785E-1,3.53846E-1,-1.4868127E-1,-1.04967654E-1,4.6409523E-1,1.5066242E-1,1.5274604E-1,-2.9401036E-2,1.0030573E-1],"categories":[],"categories_nodes":[],"categories_segments":[],"categories_sizes":[],"default_left":[0,0,0,0,0,0,0,0,0],"id":77,"left_children":[1,3,-1,-1,5,7,-1,-1,-1],"loss_changes":[1.0115345E1,1.6864123E0,0E0,0E0,1.6919851E-1,1.9760802E-1,0E0,0E0,0E0],"parents":[2147483647,0,0,1,1,4,4,5,5],"right_children":[2,4,-1,-1,6,8,-1,-1,-1],"split_conditions":[9.2E3,3.2E3,-1.4868127E-1,-1.04967654E-1,1.29E2,5.41E2,1.5274604E-1,-2.9401036E-2,1.0030573E-1],"split_indices":[1,1,0,0,6,5,0,0,0],"split_type":[0,0,0,0,0,0,0,0,0],"sum_hessian":[6.774885E1,1.864295E1,4.9105896E1,2.2306578E0,1.6412292E1,2.6087923E0,1.3803499E1,1.3065523E0,1.3022401E0],"tree_param":{"num_deleted":"0","num_feature":"13","num_nodes":"9","size_leaf_vector":"1"}},{"base_weights":[1.129173E-1,-1.4670162E-1,3.278399E-1,4.8245037E-1,-1.4111434E-1,5.079507E-1,-9.719253E-2,5.202137E-1,1.6425079E-1,2.4337168E-1,1.5984325E-1,1.11532256E-1,-5.107736E-2,1.2318817E-1,-4.188436E-2],"categories":[],"categories_nodes":[],"categories_segments":[],"categories_sizes":[],"default_left":[0,0,0,0,0,0,0,0,1,0,0,0,0,0,0],"id":78,"left_children":[1,-1,3,5,-1,7,-1,9,11,13,-1,-1,-1,-1,-1],"loss_changes":[1.4782578E1,0E0,1.0579905E1,1.6198902E0,0E0,2.0533371E-1,0E0,1.0103035E-1,3.2973605E-1,3.5967296E-1,0E0,0E0,0E0,0E0,0E0],"parents":[2147483647,0,0,2,2,3,3,5,5,7,7,8,8,9,9],"right_children":[2,-1,4,6,-1,8,-1,10,12,14,-1,-1,-1,-1,-1],"split_conditions":[1.92E3,-1.4670162E-1,2.607E3,9.0299E4,-1.4111434E-1,2.594E3,-9.719253E-2,1.942E3,1.2627E2,2.99E2,1.5984325E-1,1.11532256E-1,-5.107736E-2,1.2318817E-1,-4.188436E-2],"split_indices":[0,0,0,1,0,0,0,0,4,7,0,0,0,0,0],"split_type":[0,0,0,0,0,0,0,0,0,0,0,0,0,0,0],"sum_hessian":[1.1202947E2,2.9140873E1,8.28886E1,6.977015E1,1.3118453E1,6.799032E1,1.7798327E0,6.515216E1,2.8381572E0,3.7199447E0,6.1432213E1,1.6827835E0,1.1553737E0,2.5389686E0,1.1809762E0],"tree_param":{"num_deleted":"0","num_feature":"13","num_nodes":"15","size_leaf_vector":"1"}},{"base_weights":[9.661319E-2,-1.473273E-1,3.589623E-1,4.2173457E-1,-1.2748364E-1,1.3557965E-1,5.1858526E-1,-1.328757E-1,4.6240944E-1,1.696472E-2,1.5866113E-1,1.5794697E-1,-9.969466E-3],"categories":[],"categories_nodes":[],"categories_segments":[],"categories_sizes":[],"default_left":[0,0,0,0,0,0,0,0,0,0,0,0,0],"id":79,"left_children":[1,-1,3,5,-1,7,9,-1,11,-1,-1,-1,-1],"loss_changes":[1.7184393E1,0E0,3.9605083E0,1.9153748E0,0E0,3.88634E0,2.2279453E-1,0E0,4.2821312E-1,0E0,0E0,0E0,0E0],"parents":[2147483647,0,0,2,2,3,3,5,5,6,6,8,8],"right_children":[2,-1,4,6,-1,8,10,-1,12,-1,-1,-1,-1],"split_conditions":[2.196E3,-1.473273E-1,3.231E3,9.0299E4,-1.2748364E-1,2.594E3,7.5E1,-1.328757E-1,2.54E2,1.696472E-2,1.5866113E-1,1.5794697E-1,-9.969466E-3],"split_indices":[0,0,0,1,0,0,5,0,6,0,0,0,0],"split_type":[0,0,0,0,0,0,0,0,0,0,0,0,0],"sum_hessian":[1.0931071E2,3.3467106E1,7.58436E1,7.064836E1,5.195234E0,1.8471722E1,5.2176643E1,6.5401897E0,1.1931531E1,1.277686E0,5.0898956E1,1.0510419E1,1.4211127E0],"tree_param":{"num_deleted":"0","num_feature":"13","num_nodes":"13","size_leaf_vector":"1"}},{"base_weights":[-2.9566237E-1,4.2467418E-1,-4.6912545E-1,1.4529592E-1,-5.521153E-3,-1.4745831E-1,-4.7969767E-3],"categories":[],"categories_nodes":[],"categories_segments":[],"categories_sizes":[],"default_left":[0,0,0,0,0,0,0],"id":80,"left_children":[1,3,5,-1,-1,-1,-1],"loss_changes":[6.5319786E0,2.8272533E-1,4.1159725E-1,0E0,0E0,0E0,0E0],"parents":[2147483647,0,0,1,1,2,2],"right_children":[2,4,6,-1,-1,-1,-1],"split_conditions":[1.11E2,5.25E2,1.15266E5,1.4529592E-1,-5.521153E-3,-1.4745831E-1,-4.7969767E-3],"split_indices":[0,5,1,0,0,0,0],"split_type":[0,0,0,0,0,0,0],"sum_hessian":[4.9681557E1,9.360829E0,4.032073E1,8.1681795E0,1.1926501E0,3.8340515E1,1.9802151E0],"tree_param":{"num_deleted":"0","num_feature":"13","num_nodes":"7","size_leaf_vector":"1"}},{"base_weights":[-4.3573663E-1,-1.4751746E-1,5.000317E-2,-9.567298E-2,2.9258114E-1,-1.5518337E-2,1.8034104E-1],"categories":[],"categories_nodes":[],"categories_segments":[],"categories_sizes":[],"default_left":[0,0,1,0,0,0,0],"id":81,"left_children":[1,-1,3,-1,5,-1,-1],"loss_changes":[1.2321272E0,0E0,5.85206E-1,0E0,4.3880463E-1,0E0,0E0],"parents":[2147483647,0,0,2,2,4,4],"right_children":[2,-1,4,-1,6,-1,-1],"split_conditions":[1.12733E5,-1.4751746E-1,6.6201E1,-9.567298E-2,7.5964E1,-1.5518337E-2,1.8034104E-1],"split_indices":[1,0,4,0,3,0,0],"split_type":[0,0,0,0,0,0,0],"sum_hessian":[4.3401875E1,3.8905197E1,4.4966803E0,1.659E0,2.83768E0,1.7345251E0,1.1031551E0],"tree_param":{"num_deleted":"0","num_feature":"13","num_nodes":"7","size_leaf_vector":"1"}},{"base_weights":[2.2884315E-1,-1.3126528E-1,2.7103224E-1,3.748397E-1,1.075056E-1,2.2169246E-1,4.926178E-1,-1.4134125E-1,3.881467E-1,4.5102382E-1,-2.7272016E-1,1.5447918E-1,1.0379016E-1,4.4758594E-1,1.9718729E-1,6.0385652E-2,4.9443153E-1,-1.3501078E-1,1.072136E-1,-5.016039E-2,9.56395E-2,2.6273605E-1,1.520172E-1,3.0737156E-1,-1.03102304E-1,9.940126E-2,-7.904125E-2,3.660417E-2,1.5238826E-1,-6.657865E-2,1.332905E-1,1.3395368E-1,3.7025185E-3,9.823191E-2,-9.944218E-2],"categories":[],"categories_nodes":[],"categories_segments":[],"categories_sizes":[],"default_left":[0,0,0,0,0,0,0,0,1,0,0,0,1,1,0,0,0,0,0,0,0,0,0,0,0,0,0,0,0,0,0,0,0,0,0],"id":82,"left_children":[1,-1,3,5,7,9,11,-1,13,15,17,-1,19,21,23,25,27,-1,-1,-1,-1,29,-1,31,-1,-1,-1,-1,-1,-1,-1,-1,33,-1,-1],"loss_changes":[3.4792776E0,0E0,1.8785172E0,1.130703E0,7.538313E0,3.7174916E0,2.7657795E-1,0E0,2.6417112E-1,3.437562E-1,1.3527837E0,0E0,2.4656151E-1,1.1711025E-1,6.514037E-1,3.806106E-1,3.7234306E-2,0E0,0E0,0E0,0E0,7.6962346E-1,0E0,3.4211457E-1,0E0,0E0,0E0,0E0,0E0,0E0,0E0,0E0,4.9535862E-1,0E0,0E0],"parents":[2147483647,0,0,2,2,3,3,4,4,5,5,6,6,8,8,9,9,10,10,12,12,13,13,14,14,15,15,16,16,21,21,23,23,32,32],"right_children":[2,-1,4,6,8,10,12,-1,14,16,18,-1,20,22,24,26,28,-1,-1,-1,-1,30,-1,32,-1,-1,-1,-1,-1,-1,-1,-1,34,-1,-1],"split_conditions":[4.16E2,-1.3126528E-1,1.942E3,4.9133E4,3.214E3,7.24E2,6.44E4,-1.4134125E-1,2.77E2,4.72E2,1.449E3,1.5447918E-1,3.03E2,9.64E-1,3.52E2,1.19E2,1.22E2,-1.3501078E-1,1.072136E-1,-5.016039E-2,9.56395E-2,3.326E3,1.520172E-1,3.475E3,-1.03102304E-1,9.940126E-2,-7.904125E-2,3.660417E-2,1.5238826E-1,-6.657865E-2,1.332905E-1,1.3395368E-1,3.3E2,9.823191E-2,-9.944218E-2],"split_indices":[0,0,0,1,0,0,1,0,6,0,0,0,7,2,11,5,12,0,0,0,0,0,0,0,0,0,0,0,0,0,0,0,8,0,0],"split_type":[0,0,0,0,0,0,0,0,0,0,0,0,0,0,0,0,0,0,0,0,0,0,0,0,0,0,0,0,0,0,0,0,0,0,0],"sum_hessian":[1.1853547E2,6.4996467E0,1.1203582E2,6.774119E1,4.4294636E1,3.0701813E1,3.703937E1,1.424488E1,3.0049757E1,2.1033339E1,9.668473E0,3.4722515E1,2.3168592E0,2.1891724E1,8.158034E0,2.3426147E0,1.8690723E1,7.7681985E0,1.9002751E0,1.1233557E0,1.1935034E0,6.6253614E0,1.5266362E1,7.135991E0,1.0220432E0,1.2629108E0,1.0797038E0,1.0063986E0,1.7684326E1,1.7450033E0,4.8803577E0,4.57112E0,2.564871E0,1.3164413E0,1.2484298E0],"tree_param":{"num_deleted":"0","num_feature":"13","num_nodes":"35","size_leaf_vector":"1"}},{"base_weights":[-1.576946E-1,3.1250334E-1,-1.4703216E-1,-1.1397518E-1,4.2321447E-1,4.51519E-1,4.2905486E-3,1.3687369E-1,1.4443131E-1,-2.0727267E-2,8.430648E-2],"categories":[],"categories_nodes":[],"categories_segments":[],"categories_sizes":[],"default_left":[0,0,0,0,1,0,0,0,0,0,0],"id":83,"left_children":[1,3,-1,-1,5,7,-1,9,-1,-1,-1],"loss_changes":[9.509375E0,2.1081324E0,0E0,0E0,2.525015E-1,1.3078547E-1,0E0,1.1475989E-1,0E0,0E0,0E0],"parents":[2147483647,0,0,1,1,4,4,5,5,7,7],"right_children":[2,4,-1,-1,6,8,-1,10,-1,-1,-1],"split_conditions":[1.6233E4,2.22E2,-1.4703216E-1,-1.1397518E-1,1.45305E2,4.6469E1,4.2905486E-3,2.43E2,1.4443131E-1,-2.0727267E-2,8.430648E-2],"split_indices":[1,0,0,0,4,3,0,7,0,0,0],"split_type":[0,0,0,0,0,0,0,0,0,0,0],"sum_hessian":[5.886073E1,2.4402815E1,3.4457912E1,3.0287151E0,2.13741E1,1.9892937E1,1.4811643E0,2.2113812E0,1.7681555E1,1.124847E0,1.0865343E0],"tree_param":{"num_deleted":"0","num_feature":"13","num_nodes":"11","size_leaf_vector":"1"}},{"base_weights":[1.3567887E-1,3.4644866E-1,-1.4494812E-1,-1.347589E-1,4.589284E-1,4.8303345E-1,-9.069839E-2,4.9503955E-1,-1.2423749E-2,2.1393535E-1,1.5607631E-1,-9.410509E-2,1.16403095E-1,3.7173066E-2,-7.9822406E-2],"categories":[],"categories_nodes":[],"categories_segments":[],"categories_sizes":[],"default_left":[0,0,0,0,0,1,0,0,0,1,0,1,0,0,0],"id":84,"left_children":[1,3,-1,